0.03096778737665698,-0.059463584328514146,-0.06258257464989178,0.05043700511763391,-0.02081748212751991
0.06317319657906652,-0.04105745611398616,-0.04369603696767581,0.05915050252387399,-0.016984721074817844
0.016567454011478525,-0.030634884132059635,-0.14732537946512728,0.01757121364315733,-0.01905623802251542
0.04658732213866773,0.059502000423238,-0.29505315576769237,-0.05547065715027714,8.198062213891797E-4
0.17443696173695278,0.25730928471749126,-0.5090753157737494,-0.17330389466695223,0.04858523864424932
0.27236281559279,0.4539197268776294,-0.7734810314932765,-0.3149787009311422,0.09275044317005475
0.3342533392777122,0.5960116573457214,-0.973392884410755,-0.42194805534466606,0.12338399343961483
0.3757848433257225,0.6938498703741662,-1.1059645272164385,-0.4943757905301196,0.1440297305230913
0.4039558091373405,0.7639747251072263,-1.1983103610650538,-0.5460719327899336,0.15834978276473144
0.42382944640897774,0.8174166704897023,-1.2667409733982022,-0.5852951550006371,0.16872821382729
0.4375786371103795,0.8601228383909763,-1.3207207514940247,-0.6166283273797132,0.17635536836928586
0.44534039074453574,0.8951505604912167,-1.3666264338341627,-0.642883372365599,0.18170657155072967
0.4459222796444567,0.9241081978022191,-1.409665794754539,-0.6660806457222169,0.1848688324486233
0.4374820317812214,0.9483062084787554,-1.4550462317167576,-0.6881248136236117,0.1858637740416688
0.41980545312382445,0.9704930787436354,-1.5079319861316367,-0.7113045983936469,0.18527891816086275
0.39978638589497245,0.9959701441639971,-1.5688215862710921,-0.7370373932147382,0.18494555415028177
0.3856989632634024,1.0271374055439046,-1.6326204457699072,-0.7643676221858484,0.18619553009764747
0.37691149157160037,1.0616750126931582,-1.6971594941913002,-0.7925121103009416,0.18856117101746395
0.37163176597786746,1.0977534316435866,-1.7617829050191185,-0.8211254087724632,0.1915738843226461
0.36918931531894505,1.134734435158463,-1.8261209172553414,-0.8500318115005309,0.19510464892380097
0.3692673932445784,1.172342661334968,-1.8895667551962707,-0.8789286912873833,0.19909774965396426
0.37145059195084196,1.2102103592717177,-1.9513412479231882,-0.9073971880397428,0.20345978609577842
0.3752317088828351,1.2477390452149624,-2.010772250294256,-0.93506260877994,0.20806504539914575
0.3795799530777937,1.283804137160452,-2.0669852081239397,-0.9613852630452042,0.21261800162243008
0.3839092996556697,1.3179390954671109,-2.1198652640182942,-0.9862336726816084,0.21698791216619379
0.3885623537121033,1.350480078629854,-2.169516100245906,-1.0096914770188425,0.22128645125406238
0.39297195020698644,1.3813803953934647,-2.2160602380665004,-1.0317655988420806,0.2254434928051015
0.39930742584323986,1.4120875667856052,-2.2589262025571193,-1.0523404866132673,0.23006943871388327
0.40490006010985957,1.4402235607932787,-2.2991852452198978,-1.0716780116916353,0.23420981144742184
0.40943332859824116,1.4659365380673353,-2.3372956782370187,-1.0899664106649374,0.23782727197524184
0.41136177408034663,1.4889306322533136,-2.3742394365254733,-1.1074501556092977,0.24068991340839982
0.41270294771314175,1.5104399036994345,-2.4098299896763873,-1.1242694838437566,0.2432902107187194
0.41396487830046735,1.5307892527022045,-2.444015187002132,-1.1404375333960537,0.24576884015574624
0.4178818059440877,1.5514828267103626,-2.4747625970332643,-1.155294767920702,0.24863652050522572
0.42248652637039835,1.571542324871402,-2.5032790365820667,-1.1691838917477926,0.25152797045788133
0.42719541630519053,1.5906509021391129,-2.5299398483023916,-1.1822186102435843,0.25432244972025553
0.4316579198316899,1.6086709026194344,-2.5550564623224306,-1.194506314271603,0.25696263654966106
0.4357942691004357,1.625608671061263,-2.5787723701215115,-1.206105933539132,0.25944130370518764
0.43987901736607704,1.6416715765025895,-2.601021313671146,-1.2170181545618706,0.26181796145371533
0.4448526522463845,1.6574454676505501,-2.6215055540869114,-1.227210778662112,0.2642729224468554
0.4487098543444434,1.6718993484932192,-2.641298581802224,-1.2369548026910138,0.2664442072651068
0.45139714163695915,1.6850215196587919,-2.660513095256759,-1.2462893476501329,0.2683156931795932
0.4521979713134274,1.696479013740227,-2.679631377867632,-1.2553700349648487,0.26975977945215907
0.44684381565168263,1.7039522041373578,-2.7009384589112604,-1.2647624464324618,0.26993376997802615
0.4462888078995096,1.7135699620487206,-2.718790040600746,-1.2731023523023186,0.27098183682219973
0.4414067059275921,1.7203332489486471,-2.738018221532971,-1.2815693746266894,0.2710891542728704
0.44417927469549257,1.7308767359348394,-2.752424918671219,-1.2886755308402258,0.2726577394340859
0.45000087848083303,1.7426184690822082,-2.764374676728357,-1.2949607650196113,0.274761174970418
0.44877343822589516,1.7500879352452106,-2.7793900256421136,-1.30186816413391,0.27542896003189815
0.45243098303179274,1.7599055473042116,-2.7911603671972838,-1.3078277678751182,0.2770241288177298
0.4506122819270681,1.766418746926916,-2.805324075363488,-1.3142748161990123,0.2774951203463114
0.4534454338024559,1.7752016936033699,-2.816490904867987,-1.3198610876475823,0.27885932334107655
0.4566332264489587,1.78389496198225,-2.8269845338893163,-1.325164197099823,0.28026150384511495
0.454747966599049,1.7895711994466292,-2.8397819794523302,-1.3309696638218578,0.28062588741128314
0.4540644476649049,1.7958064132421925,-2.851713847561525,-1.3365178469412848,0.28124379044311953
0.45699823173262333,1.8036889764004542,-2.861147604030499,-1.3412975159620564,0.28251669654174794
0.45731476254208,1.809921591200792,-2.871596810770901,-1.3462463217454133,0.28324118412341254
0.45528230224951505,1.8148239473945824,-2.8832040089269118,-1.3514827444323,0.28349380896813825
0.45610629873073566,1.8211128935911471,-2.892956492002098,-1.3561773681446319,0.28431090436371387
0.4610711596255624,1.8293563286859498,-2.8999606137279854,-1.3600450352715603,0.2858847088572821
0.4655609167239546,1.8371761569936151,-2.9069329906722716,-1.3638392130403592,0.2873476538615542
0.4707488124615757,1.8452291852956273,-2.913284060858171,-1.3674198180792545,0.2889272616320908
0.4687908962580644,1.849151461901226,-2.9231040035865483,-1.3718164672852327,0.28908508333010413
0.46488704353689264,1.8521138733082487,-2.9340820930557965,-1.376551513162256,0.2889031848266
0.4618607556534668,1.8554070413775499,-2.9443502941090087,-1.381047872765017,0.28884168172111047
0.4604787129098992,1.8595811404111144,-2.9536748226206866,-1.385291165523101,0.28912782733061326
0.45965172864180304,1.8638826875570662,-2.962393769550071,-1.3893062522441024,0.2894699387201714
0.4620322381907696,1.8697732167325782,-2.9691091241737984,-1.3927494156555926,0.2904384846389424
0.46219518424838335,1.8743215003329217,-2.9768073937747803,-1.3963980423597373,0.29093975457140997
0.46145839533948946,1.8784234251363892,-2.9850364538243777,-1.400199775467116,0.2913004914530033
0.4609942313221621,1.8825273949823809,-2.9928671168021936,-1.4038409128460148,0.2916681452627985
0.46230064938006993,1.8874862629288207,-2.9995541832587267,-1.4071496053428445,0.29239061314881515
0.4649052470711509,1.892999871915701,-3.0052752485325454,-1.4101494235374221,0.29334544837000887
0.46490854682471006,1.8969928960286713,-3.0122310875582743,-1.4134310339972163,0.29376399622734106
0.46360972859440797,1.900356854374339,-3.0200044376755515,-1.416954949172237,0.29396510908001056
0.465691760228714,1.9053520885978596,-3.025608171334613,-1.4198420392521274,0.29479304811591217
0.4657543878605038,1.9091532204916295,-3.0321349492960037,-1.422929160791081,0.2951981124784029
0.4647778398774706,1.9124540746369159,-3.039310445333432,-1.4262087846043385,0.29543467279940444
0.4659548833453365,1.9167866414372563,-3.0450661559768903,-1.429055655146786,0.296057435094116
0.4714732137339457,1.923322290282533,-3.048233098376143,-1.4311857964355734,0.29750767973829156
0.47500043770426503,1.9286975840897769,-3.0523463989380857,-1.4335281238087407,0.2985654714124265
0.47649258369766534,1.9329037074897253,-3.0574356997062675,-1.4360996922308715,0.29922348934330323
0.47482426168774855,1.935282419328841,-3.064065757636876,-1.4390370609630274,0.29924247453397174
0.46953102619954984,1.9359081701163112,-3.0729935655949587,-1.442648276948583,0.2985844614214436
0.46708142433105004,1.9379960341944378,-3.0802158495667014,-1.445774989636007,0.29847647624847923
0.47046652969668556,1.9430203715260468,-3.083913924727968,-1.447913720642765,0.29947678267840305
0.4711679044486689,1.9464995775331786,-3.0889219656286726,-1.4503544994308533,0.2999346927576961
0.47056436678481073,1.9492868398511876,-3.094636506265938,-1.4529834794826764,0.30015164587882215
0.4738604438170051,1.9540875518503527,-3.0980816745079394,-1.4549931842199222,0.3011147672821828
0.47433372599781687,1.957273763476062,-3.102925632642176,-1.4573299418263754,0.30151077188439873
0.47421245171275644,1.960164569875395,-3.108098270627358,-1.4597607923335896,0.30180740475199097
0.4728518367820862,1.9623176431633855,-3.1138589520562445,-1.4623272697300445,0.3018404953212552
0.4708077995454653,1.964177715761415,-3.1200970499947043,-1.4650442004244129,0.30177224446172
0.47292915173916034,1.9681536753760935,-3.123847206099108,-1.4670609912217083,0.30248498627002846
0.47789593431021016,1.9736206281044577,-3.1259664482741423,-1.4686340380791314,0.30374481072923926
0.48178402786789276,1.9784846906744953,-3.1286203016891716,-1.4703274855931587,0.30478866452661835
0.4874534853182616,1.9842743026753706,-3.130272840383879,-1.471758566362104,0.3061755845954418
0.4926993720668395,1.9897860279944062,-3.132096540565328,-1.4732218341322354,0.30748219555308687
0.49707728924439426,1.9947875795192829,-3.134311136877055,-1.474767573027451,0.3086126584824864
0.5008345259353603,1.9994040522624181,-3.136777403422882,-1.4763607888708499,0.30961760992816817
0.504059090942108,2.003683148391906,-3.1394562884478905,-1.4779936849471527,0.3105149666217116
0.5070521601363732,2.007764330302788,-3.1421612886533548,-1.4796167231258923,0.3113659597213082
0.5095773045250636,2.011543974480413,-3.1450391447415362,-1.4812680389760713,0.31212152508373037
0.5114247519261111,2.0149440673291945,-3.1482257330635774,-1.4829828639755627,0.3127415655202294
0.513007967152501,2.0181197447723576,-3.151458284694301,-1.4846944013065957,0.3133053581370174
0.5142048175564122,2.0210417602919044,-3.1548235027342875,-1.4864247339131367,0.3137901642043395
0.5150928226741106,2.0237552504657708,-3.158285390729509,-1.4881656657689775,0.31421031176458414
0.5154236466145687,2.0261645523447593,-3.1620146043612656,-1.4899640564210859,0.3145153383296957
0.515633806497558,2.028468415894084,-3.165730470418826,-1.4917431526187146,0.3147923852740629
0.5157436972075711,2.0306723999399012,-3.169425793582415,-1.4935030186456677,0.31504643240835084
0.5157578189734265,2.032784466712971,-3.1731057299773506,-1.4952458874291545,0.31527848552709514
0.5157298704127333,2.0348331280185508,-3.176739763191134,-1.4969635499213223,0.31549923680482633
0.5156528783043399,2.0368173616586898,-3.180334285947781,-1.4986578398029122,0.3157074429814832
0.5153256128481324,2.038660342468262,-3.1840467002584116,-1.5003765984147772,0.3158628708221819
0.5152703236655042,2.040598703776799,-3.1875274884623046,-1.5020200743144285,0.3160690540444255
0.5150908110474933,2.0424659949051045,-3.1910792800493786,-1.5036806610717945,0.31624859064334676
0.5152050263955686,2.044445863072041,-3.1943795145418776,-1.505258239819657,0.31648177212401324
0.5152056691007867,2.046351553492036,-3.197728269492114,-1.5068447571087755,0.31669081959584533
0.5153605003366316,2.0483009298313775,-3.200913625522124,-1.508373127603304,0.31692652696394014
0.5156730940219137,2.050324229474857,-3.2039890749878173,-1.5098666918381998,0.31718861175299096
0.5159489632662901,2.0522942505147164,-3.2070300234151863,-1.511340711460985,0.317442858629631
0.5162970269553705,2.0542933494315716,-3.2100373145878898,-1.51280618140773,0.31770849580009947
0.5167085716116511,2.0562925837397787,-3.2129269103247187,-1.514224345593377,0.31798430644620307
0.513623803768594,2.0563341839796907,-3.2176046425482587,-1.5160808781784745,0.31756196031677186
0.5069848465750629,2.054620271072177,-3.224452691163505,-1.5185598782904055,0.31648402713648494
0.5038735324522542,2.0546975272049037,-3.2292164091682767,-1.5204617882212468,0.3160749644067262
0.5028482591406699,2.0558630685382373,-3.232770393828611,-1.5220300389718702,0.316062526212939
0.50293618080173,2.057611201473033,-3.2357011586083866,-1.5234309519516864,0.31626556707830356
0.5039352069460709,2.05983384060195,-3.2381021541661417,-1.5246861516477082,0.31664277056614476
0.5021753262913197,2.0605249537342614,-3.2419264957805156,-1.5262893691416506,0.3164676908296081
0.49705569165106406,2.059509254813229,-3.2477326932864856,-1.528447464041154,0.315644833497594
0.4884809059525497,2.0569107600076237,-3.255886410426818,-1.5313259786624143,0.31420781632517975
0.48232500050054533,2.0555384845622022,-3.262603152721981,-1.5337996000174834,0.3132126276974305
0.4765219293706888,2.0544490925964722,-3.269271716236274,-1.536292382712396,0.31228609402310276
0.46936293095821446,2.0529550945262898,-3.277240321999961,-1.5392470704940722,0.3111387825851445
0.4642349761742511,2.0525367855745174,-3.284051857468134,-1.5418871972836796,0.3103779051105884
0.4601910579321756,2.052639922958128,-3.2901737688300416,-1.544323685471398,0.3098451374218567
0.45869390693211526,2.0538692284119895,-3.2944759914781008,-1.5461934801829451,0.3097678913340057
0.4577495709111675,2.0553963724083153,-3.2984725731168547,-1.5479833221326817,0.30978143142531744
0.4552313034636025,2.056352509896364,-3.3038028202604135,-1.55022547000112,0.3095242389570613
0.4535559754758283,2.057736344020419,-3.308615997856913,-1.5523188725248014,0.30942498186495987
0.45196264420433496,2.0591685120391023,-3.3133980551916724,-1.5544064233048436,0.3093519423731151
0.45132659145580484,2.0610451118482143,-3.317520635095241,-1.5562928954336728,0.3094452911637488
0.4502730966754081,2.0627639838746696,-3.3220017916502793,-1.5583006372164605,0.3094772117799072
0.45024128267156316,2.064831122038906,-3.325570112208786,-1.559993280751698,0.30968487640377823
0.4506783259393681,2.0670976377899093,-3.328792197369773,-1.5615772614319532,0.3099674707692644
0.4509342745962897,2.0692316569126534,-3.3320506592855232,-1.563156032591198,0.31022441933354994
0.4515993659481836,2.0715436967183845,-3.3350144613788077,-1.564643823935942,0.3105423358915599
0.45120632084035195,2.0734574282957694,-3.3388428354415316,-1.566419686401378,0.3106742283242337
0.45051892606457994,2.0752686764409893,-3.3429360838753284,-1.5682879488979695,0.3107608774081543
0.4504468390319785,2.0773348926733597,-3.3465484248031,-1.5699983374534425,0.3109525606562309
0.4506816461572322,2.0794350073886885,-3.3497818405087854,-1.571561225243136,0.31121227491165016
0.45231156678596207,2.0820864078172137,-3.351906619011753,-1.5727623708348066,0.3117118881094342
0.4560929668234115,2.0857640508963695,-3.352632906072568,-1.573549746907211,0.31261582769533447
0.46115733703812756,2.0900914898412695,-3.352590488142321,-1.57411975270025,0.31376319686122245
0.4673868963292272,2.0950456864291915,-3.351914296540576,-1.5745236723194722,0.31513600840228595
0.47116099589996957,2.0985604709720445,-3.3523948323084327,-1.5751822820746026,0.3160166303862057
0.4751597914113986,2.102176482066771,-3.352712863633996,-1.5757994149608787,0.31694367784321575
0.4771590207349563,2.104641408911108,-3.3540130138774558,-1.5766455965379966,0.3174698933104833
0.4745597649929266,2.1048045456072924,-3.3581091697813044,-1.578290223759641,0.3171172779231563
0.472877789808201,2.1054376958340284,-3.3616409187807963,-1.5797697083364872,0.3169485778835697
0.47421841424061023,2.1075600888366695,-3.363302695954413,-1.5807170721873085,0.3173559943483469
0.47458355764908067,2.1091438606288926,-3.3654839997714636,-1.581794627979832,0.31756097675001416
0.47189320709857396,2.109266506799959,-3.369636711198252,-1.583456214867178,0.3171986662947324
0.46953633397559963,2.109602310965551,-3.373661842291726,-1.5850964029483359,0.3168953089028056
0.46630997144856834,2.109610123834925,-3.378407243902111,-1.5869779881405148,0.3164480797336126
0.46406258091357255,2.1101057921141493,-3.382540367289118,-1.5886828153290875,0.31617826733957244
0.46215876161774216,2.110767929665342,-3.386459214021633,-1.5903250310525239,0.3159802326465103
0.4608613037368231,2.1117442447116748,-3.3900141739542247,-1.5918659582638481,0.3158896929011188
0.45943414588103476,2.1126594199290163,-3.393657188511674,-1.5934311472193072,0.31578967994908047
0.46049570036393733,2.1146910010126545,-3.3955645311254847,-1.5944634385051746,0.31615057724335316
0.4613613350870478,2.1165962504005167,-3.3975436698035963,-1.595505971784693,0.3164559994846527
0.4603051252806279,2.117610869133356,-3.400813203519097,-1.5969393007583148,0.31641157637493944
0.4609076566652762,2.119382773106662,-3.402940383578358,-1.598021884691832,0.3166803241831306
0.46144593350605423,2.121101071828391,-3.4050818890157877,-1.5991044696532362,0.31692112522951127
0.4602888277358208,2.122048517540216,-3.4083840348422,-1.6005418164230734,0.3168557533868429
0.45960486937340006,2.1232451464922635,-3.4114128698748933,-1.6019044621730643,0.3168727835175994
0.45918964082036157,2.124541683496446,-3.4142205211355097,-1.6031914223956196,0.3169552724046563
0.4597575601134701,2.126257078278711,-3.4163108229937293,-1.6042526449467247,0.31720480758911973
0.45991005455692424,2.1277739777868447,-3.418662103510394,-1.6053894542329719,0.31737188462903837
0.4595921495998708,2.1290926322905803,-3.4213626382338647,-1.6066386748346773,0.3174521371097567
0.459314216027855,2.130412206839916,-3.4240071355479516,-1.6078645326828607,0.3175549551957018
0.4606896911658664,2.1324887238505643,-3.425523657941126,-1.6087479924721764,0.317961428536242
0.46170854421215973,2.134359257957189,-3.4272160932811158,-1.6096724312303556,0.31828516198505846
0.46082785833842554,2.1353488517190713,-3.4301837804570154,-1.6109834440623982,0.31825881161156483
0.460193906395298,2.136480289927572,-3.4330265945977505,-1.612263823438663,0.31827647982134605
0.45958529622119226,2.1376061509583435,-3.435825438980248,-1.6135241483286646,0.3183097630098453
0.45943173493187683,2.1389315912178706,-3.4382988907465895,-1.6146847599719056,0.3184149556425424
0.4597567161706634,2.140456749320052,-3.440409510679303,-1.6157280850683433,0.3186194514012023
0.4602338245979653,2.142040743798949,-3.442404915317778,-1.6167350827276665,0.31883820492971415
0.45943331331583953,2.1430610163595776,-3.445305075823063,-1.6180237996233926,0.3188250563793947
0.45890415871798307,2.1442068661123486,-3.4480192312111564,-1.6192554385806102,0.3188607141692119
0.4584332730821234,2.1453917552579975,-3.450712629569546,-1.6204841397949352,0.31890764169161123
0.4583343497888727,2.1467087060342314,-3.4530869433590983,-1.6216033291623408,0.3190320020402504
0.45895472430656,2.1483321640485795,-3.4549318318348092,-1.622554631837721,0.31928077464802984
0.4594900018114212,2.1499009617446565,-3.456811900107174,-1.623512920510774,0.31950840229540595
0.4611290560381548,2.1519965576834164,-3.4579671088258617,-1.624255164292524,0.3199522925422881
0.4627602596565019,2.1540549894066263,-3.4590761836367716,-1.6249726615142335,0.32038565072825004
0.4634552934644333,2.1556321312131717,-3.4607375868032384,-1.6258448986602902,0.3206344763398924
0.46255592486461367,2.156480942921372,-3.4634895689311533,-1.6270514800726779,0.3205888439459499
0.46177690633166074,2.1573955893427677,-3.4661754821874506,-1.6282405225812178,0.3205661226183273
0.46128810783763896,2.158428186580826,-3.468641040871894,-1.629358140555062,0.3205995724367243
0.46096363620753444,2.159536533933927,-3.4709921822625747,-1.6304409778747053,0.3206600875408092
0.46057245625985943,2.160624748806,-3.4734042524143702,-1.6315450850843518,0.3207083891600313
0.46071219427449145,2.161933553858437,-3.475413913813438,-1.6325189761901504,0.3208644115032088
0.4626654097357943,2.1641178235542475,-3.4762662258511168,-1.633154694616442,0.32136082462599636
0.46406115323346864,2.1659817933993395,-3.477391904296709,-1.6338530100940685,0.32173805254285376
0.4648724184331951,2.1675485855840826,-3.47885919427526,-1.6346472197248403,0.3220122041992895
0.4675051814681618,2.1700464251367944,-3.4792501722511076,-1.635142637259081,0.3226334695149526
0.47005191227372856,2.1724829910175045,-3.479662013669695,-1.6356349830396828,0.3232363779862969
0.47194685221766886,2.1745370061352283,-3.4803838511473555,-1.6361974495113434,0.3237065785368051
0.47448833357366643,2.1769416565247286,-3.48075003217554,-1.6366687916009057,0.3243059364864973
0.4768907820885632,2.179257629221922,-3.481171587334559,-1.63714836940937,0.3248766966529355
0.48016680010575646,2.182051072664699,-3.4811363174678385,-1.6375150659706648,0.3256179968779466
0.48207653131554346,2.1840539686863463,-3.4817590657167377,-1.63802898627255,0.3260848353467205
0.48323381122109427,2.185669609191658,-3.4828013711384593,-1.6386549176421168,0.3264054661977118
0.48549533568285125,2.1878550791521456,-3.4832155549471193,-1.639116837971831,0.3269439893520337
0.4879604051824498,2.190151461748654,-3.4835173177933627,-1.639546666487574,0.3275225352777907
0.4903686442179741,2.192400821457716,-3.483825674321061,-1.6399727311335002,0.32808785864466966
0.4921177133542686,2.1943226776657085,-3.4845154618989165,-1.64049554647066,0.32852006961262165
0.4928473542138807,2.1956160102894433,-3.485660199468367,-1.641120747129302,0.32874965750123114
0.493711341983336,2.19698591644991,-3.4867376522384865,-1.6417347248399239,0.3290122930817822
0.4935586486809458,2.1977907118949855,-3.488334933620547,-1.6424739992105541,0.3290677274852472
0.49273919303594976,2.1982630472314955,-3.490334664975637,-1.6433303287170655,0.32900514901229044
0.4933995801118777,2.1995052804280864,-3.4914812891082843,-1.6439532234086722,0.3292255355875282
0.49486928803830893,2.2011848577024535,-3.492189389696893,-1.6444609191199304,0.3296016456037153
0.4960103848700858,2.2026749803456562,-3.493066772935223,-1.6450092553059317,0.3299112250403741
0.49773007595913715,2.204481251083684,-3.493632028812397,-1.6454788404879488,0.33033490056803194
0.5004295493321792,2.206836961185477,-3.4937018162208013,-1.6458275230528159,0.3309516937576748
0.5035306008721375,2.2094284321956983,-3.493580605329242,-1.6461295898472244,0.33164894894479985
0.5049194889146428,2.2110159272398473,-3.4942650106429154,-1.646610339741672,0.33200291103647894
0.5054923386238205,2.21216064091492,-3.4953771647639966,-1.647205047654551,0.332202049034922
0.5067144001550222,2.213652526046719,-3.496131928736622,-1.647705850249117,0.3325259241162377
0.5084739171698078,2.215442876196675,-3.496623559667554,-1.6481439057519989,0.3329557594984104
0.5107226736871082,2.2175104273474853,-3.4968603358783272,-1.6485171937920156,0.3334812125647202
0.5129387220773798,2.219559187280255,-3.4971158680810883,-1.6488951075597165,0.3339997145315658
0.5140145332184825,2.220934470092077,-3.4979039571995636,-1.6493908836954776,0.3342896465681664
0.5150060116610061,2.222267543032726,-3.498732553713832,-1.6499004262761678,0.334566048786566
0.5164422002609456,2.2238508473563363,-3.499330692684446,-1.6503507567686417,0.33492737490971797
0.5182412573123402,2.225632384520239,-3.4997459096098043,-1.650757346888654,0.3353620732313811
0.5203762409126186,2.2276018670485476,-3.4999807084865755,-1.6511159673783047,0.335861480149494
0.521266883409873,2.2288467001069865,-3.500811282316841,-1.6516091408788256,0.33611218889955735
0.5219768693889997,2.230001773223616,-3.501743431815053,-1.652134057524222,0.3363288384739058
0.5227857133941702,2.2312047691312147,-3.5026236911120185,-1.6526465363747171,0.3365677348202871
0.5238679060704045,2.232559109058738,-3.5033527914275253,-1.6531179065054646,0.3368568121573257
0.5243300726663706,2.2335786406486027,-3.5044223586147165,-1.653677746354597,0.3370251579930387
0.5242327237472565,2.2342521097809067,-3.5057281087099597,-1.6542844624487507,0.33708004891209925
0.5236958608138474,2.234700030072264,-3.5072795816269347,-1.6549590203856568,0.33705430920858753
0.5227259410923095,2.2349251562169816,-3.5090842577374346,-1.6557030166586444,0.336942154983083
0.5210838797509136,2.2347736010196737,-3.5112415120989287,-1.6565359523275651,0.3366952345391694
0.5202366855555945,2.235037716843565,-3.5129414513310557,-1.6572480590688008,0.3366074706438593
0.520405070048834,2.235846963792771,-3.51407483026944,-1.6578067214047578,0.33671525094691923
0.5212348739177234,2.2370173611699635,-3.514856240874376,-1.6582744950374353,0.3369513989239539
0.5223853498171078,2.238368702428664,-3.5154804048991597,-1.658704473484564,0.33725143565022186
0.5228571778467005,2.23933066186049,-3.5164359453669856,-1.6592102728480704,0.33741584378866635
0.5235707860873972,2.2404281095462575,-3.517266105640143,-1.6596877899422324,0.3376289320443923
0.5244475884855361,2.2416150492014517,-3.518033194008274,-1.660154693319427,0.337875878836904
0.5258039860532077,2.243067745838506,-3.5185270958534667,-1.6605466297151679,0.33821445728109634
0.5272044757430311,2.244543279477881,-3.518997705980236,-1.660931994163357,0.338561922206411
0.5276616558268208,2.245500511630717,-3.5199667995472748,-1.6614435934500047,0.3387236567284034
0.5287771429621392,2.246809939258272,-3.5205745882683357,-1.6618623906290066,0.33901566992432997
0.5296449657222055,2.2479757856265508,-3.5213019131226173,-1.6623082170984478,0.33925883459050893
0.5307615256624361,2.2492727921956495,-3.521882513243069,-1.662713341733297,0.3395483099954753
0.5321911997640043,2.2507496579415207,-3.5223219513201753,-1.663087705926856,0.33990064604168085
0.5329496788062638,2.2518483511610254,-3.5230977315428844,-1.663541100945781,0.3401174032839672
0.5342738357283233,2.2532511572040743,-3.5235612460849772,-1.6639158632144317,0.34044644445820754
0.5356325851527489,2.2546789912769194,-3.5240131265278944,-1.664287424507035,0.3407819625469068
0.5371182600807288,2.256178274061534,-3.524410053211962,-1.6646486632099002,0.3411429142148802
0.5390366152554021,2.2579242495694594,-3.5246003116691145,-1.6649622728196927,0.3415908687367147
0.5411057690904097,2.259754874893634,-3.524713935188881,-1.6652574416162729,0.34206873113466285
0.5433035621526134,2.2616561472046834,-3.524755871491295,-1.6655327868632235,0.342571314344898
0.5455170166803083,2.263575209077307,-3.5247915459993906,-1.6658045058020818,0.34307910320551604
0.5475715276134338,2.26539075332297,-3.524890889346283,-1.6660885030638155,0.3435534672320285
0.5483753198671315,2.266505395717331,-3.525625132132169,-1.6665270928250593,0.34377943205501227
0.5496788632442404,2.26786918572788,-3.5260571285144833,-1.6668842838656386,0.3441025323545113
0.5510196284219993,2.2692527275407275,-3.52646233099237,-1.6672312552988375,0.34443298135920053
0.5524301701240995,2.2706746421013677,-3.5268313765393393,-1.6675692604063759,0.34477688328511996
0.5539072456868618,2.272131890895293,-3.5271793790753194,-1.6679073334072374,0.34513492920676736
0.5554854009978468,2.273644700345345,-3.5274733656787105,-1.6682313248140068,0.345512678671197
0.5564641615631916,2.274802647328833,-3.528033392175133,-1.6686093578217784,0.3457705577933383
0.5573291098673911,2.275894057154482,-3.528637452445394,-1.668996068259635,0.34600515696278966
0.5583541384375429,2.2770834284572548,-3.5291691056771555,-1.6693659781209085,0.346273890648708
0.5593754511869075,2.2782779850643573,-3.5297125821893935,-1.6697400088975607,0.34654332175799357
0.5604585761807088,2.279492078802451,-3.530219628350727,-1.6701069632801742,0.34682018376415047
0.5618936040797436,2.280900299484497,-3.5305394771203233,-1.6704259879623744,0.34716672360335493
0.5633869569081672,2.282339745977782,-3.530816089860593,-1.6707292889648495,0.3475240308699049
0.5648515314727567,2.283758643152881,-3.5310989069498557,-1.671032065158617,0.34787512693086386
0.5662804288914667,2.2851539615692733,-3.5313944358963982,-1.6713368047925483,0.3482189670275828
0.5676723351173149,2.2865242704842923,-3.531700823764763,-1.6716423354101893,0.34855505155457783
0.5690316119577045,2.287873311892688,-3.5320201579063166,-1.671950384282097,0.3488846502353745
0.5703590361605827,2.289199878070793,-3.532346380708686,-1.672257842547301,0.34920735348564996
0.5716461597952626,2.290501710075298,-3.532691961814053,-1.6725701222239902,0.3495223331881291
0.5728392939234089,2.2917628132241576,-3.533098373728245,-1.672898702794373,0.34982357979482365
0.5734925414619996,2.2926978741911395,-3.5338145342285876,-1.6733140873335464,0.3500179831225577
0.5740627028475374,2.293607321211418,-3.534536080297932,-1.6737205968901125,0.3501962586312747
0.5750909881857825,2.2947458114154435,-3.5349942203139575,-1.674058236742599,0.3504592795085092
0.5760920225487572,2.295867316117501,-3.5354762273753595,-1.6744052228747084,0.3507181453857411
0.5765751971756183,2.296683497518614,-3.5361916215562115,-1.6748015926496493,0.3508735586402875
0.5770265514729533,2.297477310412912,-3.5368900650894,-1.6751847781322766,0.3510199045610474
0.5774370925324406,2.298247995476494,-3.537615435074837,-1.67557654621801,0.35115917973170985
0.57793598675009,2.29906486971423,-3.538288819471256,-1.675953821254983,0.35131517733429346
0.5779998379937014,2.299637133984249,-3.539187281297421,-1.676387280917336,0.35138699555605885
0.5781724311129711,2.30025988045594,-3.5400027982756175,-1.6767941630940917,0.35147715714914113
0.5780722477029093,2.300744842789214,-3.5409932802823127,-1.6772534615860422,0.3515133656173858
0.5784128611531886,2.301459432113629,-3.5417350151848876,-1.677646466261297,0.35163752709894563
0.578812698460767,2.3022020445845826,-3.54244714653523,-1.678033647326745,0.35177367411156774
0.5793282603371035,2.303007134666888,-3.543071503006807,-1.678389171261054,0.3519300880635575
0.5796948088665382,2.303750220072073,-3.543802452509292,-1.678776150797062,0.3520644187594035
0.5796402647883794,2.3042312619419123,-3.544724771134771,-1.6792078183808252,0.3521100825068369
0.5793595057533365,2.3046060021549613,-3.5457766104903317,-1.6796730094286856,0.3521162538398094
0.579554626205399,2.305218701110726,-3.546556392469152,-1.6800675611214055,0.3522096821050196
0.5797021065453765,2.305804578746684,-3.547353937686954,-1.6804631673596413,0.3522937445014997
0.5799395902501001,2.306433994436507,-3.5480847297155846,-1.6808371888278888,0.3523934076478091
0.5799019298105762,2.3069405137302166,-3.549011442723587,-1.6812717405821607,0.3524460214920192
0.58034311549844,2.307683748363168,-3.5496577650185204,-1.6816311188714208,0.3525872005491019
0.5803744811984208,2.308194832012823,-3.5505819503250855,-1.682076481581667,0.35265201734765783
0.5802363496713412,2.3086072300948297,-3.5515814889170665,-1.6825376407687023,0.3526827669287628
0.5797887429747638,2.3088474047459338,-3.5526739187483867,-1.6830060581153523,0.35264967477444864
0.5793904570351934,2.3091058990911755,-3.553730278533693,-1.6834654559148028,0.35262557046585685
0.5792596957346394,2.3095111396736008,-3.554622200755917,-1.6838742163188982,0.3526516495109493
0.5792878174971635,2.3100007888099294,-3.5554209937761216,-1.6842565735263813,0.35270782833551106
0.5794173346071767,2.310544715137206,-3.5561637642679913,-1.6846239761248587,0.35278361715417694
0.5796305126373051,2.3111332760011716,-3.5568600936142554,-1.684978940027336,0.3528755777163815
0.5799129227152453,2.3117585686671385,-3.557517687435928,-1.6853234705452576,0.35298090702314416
0.5802527726105188,2.312414093669519,-3.558142747191407,-1.6856591574149629,0.35309730762570496
0.580640263666216,2.313094418625867,-3.558740360145635,-1.6859872888865937,0.35322286586476187
0.5810671736640526,2.3137949613860775,-3.5593147521375266,-1.686308925285228,0.35335597296307103
0.5815265675223575,2.3145118396031537,-3.5598694564953792,-1.6866249461483993,0.35349526981966983
0.5820125716538523,2.3152417523154503,-3.560407443027603,-1.6869360855647493,0.3536396037566328
0.5825201935703858,2.3159818843534805,-3.56093121945195,-1.687242959605267,0.3537879938227435
0.5830451763018017,2.3167298284997524,-3.561442911993844,-1.6875460878550288,0.353939602707075
0.5835838800016638,2.317483521663099,-3.561944330009057,-1.6878459104806591,0.3540937138346129
0.5841331850467728,2.318241192248774,-3.5624370181869294,-1.688142801870043,0.3542497125733226
0.584690412277325,2.3190013165437997,-3.5629222990051574,-1.6884370816133496,0.35440707073068073
0.5852532570046385,2.3197625824083796,-3.563401307469077,-1.6887290234034453,0.3545653337001872
0.5858197341448133,2.3205238589198354,-3.5638750197006623,-1.6890188622954818,0.3547241097551876
0.5863881323925753,2.321284170889253,-3.5643442765931903,-1.6893068006633862,0.35488306109173845
0.586956975777172,2.3220426773841263,-3.5648098034836915,-1.6895930131147379,0.3550418963029014
0.5875249912743927,2.3227986535578293,-3.5652722265937804,-1.6898776505680275,0.355200364029745
0.5880910814089353,2.3235514752193627,-3.5657320868343203,-1.6901608436524647,0.3553582475837708
0.5886543009863687,2.3243006056824753,-3.5661898514489003,-1.690442705556891,0.3555153603745752
0.5892138372564928,2.3250455845177744,-3.5666459238770942,-1.6907233344283807,0.3556715420076408
0.5897689929393901,2.3257860178993313,-3.5671006521445023,-1.6910028154008798,0.3558266549419889
0.5903191716491049,2.326521570292153,-3.567554336028189,-1.691281222318419,0.3559805816173585
0.5908638653331721,2.3272519572711508,-3.5680072331997277,-1.6915586192049983,0.356133221976622
0.591402643413429,2.327976939298353,-3.568459564511048,-1.6918350615233684,0.35628449132213635
0.5919351433679413,2.328696316314381,-3.5689115185586213,-1.6921105972571335,0.35643431845525597
0.5924610625381302,2.329409923024228,-3.5693632556376556,-1.6923852678443276,0.35658264405681045
0.5929801509812301,2.330117624777047,-3.569814911178592,-1.6926591089856087,0.35672941927335683
0.5934922052177364,2.3308193139557942,-3.5702665987426516,-1.692932151346176,0.356874604479754
0.5939970627477307,2.3315149068059244,-3.5707184126403178,-1.6932044211672364,0.3570181681933321
0.5944945972299266,2.3322043406433535,-3.5711704302262537,-1.6934759408001956,0.3571600861188165
0.5949847142337735,2.332887571391021,-3.571622713915603,-1.6937467291745936,0.3573003403063928
0.5954673474886416,2.333564571401058,-3.5720753129595324,-1.6940168022090005,0.35743891840797065
0.5959424555654663,2.334235327525834,-3.5725282650120818,-1.694286173172663,0.35757581301893043
0.5964100189357316,2.3348998394065354,-3.5729815975155383,-1.6945548530044667,0.35771102109449504
0.5968700373606146,2.3355581179523672,-3.5734353289275176,-1.6948228505947889,0.3578445434314288
0.5973225275697733,2.3362101839871836,-3.5738894698095898,-1.6950901730350048,0.3579763842070747
0.5977675211948866,2.3368560670436196,-3.5743440237944704,-1.695356825838682,0.35810655056884155
0.5982050629277963,2.337495804287385,-3.5747989884464144,-1.6956228131379614,0.35823505226818614
0.5986352088771211,2.338129439556712,-3.575254356027463,-1.6958881378581139,0.358361901333934
0.5990580251006375,2.3387570225038905,-3.5757101141805068,-1.6961528018728496,0.3584871117804452
0.5994735862936417,2.3393786078274936,-3.5761662465386754,-1.6964168061426346,0.35861069934671264
0.5998819746159822,2.339994254585272,-3.576622733269352,-1.6966801508379457,0.3587326812629725
0.60028327864262,2.3406040255790006,-3.5770795515600753,-1.6969428354491691,0.35885307604182237
0.6006775924243931,2.3412079868035436,-3.577536676052666,-1.6972048588846123,0.35897190329121625
0.6010650146472594,2.341806206953328,-3.577994079231165,-1.697466219557948,0.3590891835470096
0.6014456478796653,2.3423987569802764,-3.57845173176851,-1.6977269154662054,0.3592049381230029
0.6018195978988853,2.3429857096978286,-3.5789096028362786,-1.697986944259341,0.35931918897667225
0.6021869730882039,2.3435671394263524,-3.5793676603813522,-1.698246303302253,0.35943195858897253
0.6025478838977303,2.3441431216757564,-3.5798258713728996,-1.6985049897300435,0.3595432698567854
0.6029024423624234,2.3447137328615644,-3.5802842020227112,-1.698763000497218,0.35965314599673776
0.6032507616715944,2.3452790500511007,-3.5807426179815875,-1.6990203324214426,0.35976161045925154
0.6035929557847763,2.3458391507368286,-3.581201084514181,-1.6992769822224116,0.3598686868518136
0.6039291390893744,2.3463941126341545,-3.5816595666544355,-1.6995329465563256,0.35997439887055493
0.6042594260959995,2.346944013501311,-3.5821180293435817,-1.6997882220464064,0.36007877023932416
0.604583931167796,2.3474889309791704,-3.582576437552355,-1.7000428053098622,0.3601818246555234
0.6049027682804602,2.3480289424490617,-3.5830347563890528,-1.7002966929816357,0.36028358574205316
0.6052160508099667,2.3485641249068396,-3.5834929511947697,-1.70054988173528,0.36038407700476904
0.6055238913453185,2.3490945548516478,-3.583950987627102,-1.7008023683012177,0.3604833217949237
0.6058264015239024,2.3496203081879528,-3.5844088317334206,-1.7010541494826708,0.36058134327610714
0.6061236918872691,2.350141460139586,-3.5848664500147693,-1.7013052221694707,0.36067816439525624
0.6064158717553533,2.350658085174631,-3.58532380948126,-1.7015555833499698,0.36077380785733737
0.6067030491173602,2.3511702569401094,-3.585780877699849,-1.701805230121238,0.36086829610335286
0.6069853305376953,2.3516780482055206,-3.5862376228352075,-1.702054159697721,0.36096165129134233
0.6072628210754765,2.352181530814392,-3.5866940136843843,-1.7023023694185133,0.36105389528009607
0.6075356242163003,2.352680775643038,-3.5871500197058794,-1.7025498567533797,0.3611450496153116
0.6078038418150626,2.3531758525658595,-3.5876056110436756,-1.7027966193076622,0.36123513551795594
0.6080675740487407,2.3536668304265067,-3.5880607585467508,-1.703042654826178,0.3613241738746169
0.6083269193781448,2.354153777014354,-3.5885154337845053,-1.7032879611962202,0.3614121852296478
0.6085819745177462,2.3546367590457464,-3.5889696090585628,-1.7035325364497491,0.36149918977892254
0.6088328344127583,2.355115842149538,-3.589423257411278,-1.7037763787648676,0.36158520736504496
0.6090795922227306,2.355591090856507,-3.589876352631318,-1.7040194864666478,0.36167025747385884
0.6093223393109852,2.3560625685922174,-3.590328869256639,-1.7042618580273925,0.3617543592321275
0.6095611652392801,2.3565303376729996,-3.5907807825751124,-1.7045034920663797,0.36183753140626246
0.6097961577671405,2.35699445930472,-3.5912320686230808,-1.7047443873491661,0.36191979240198613
0.610027402855359,2.3574549935840112,-3.5916827041820705,-1.7049845427864847,0.36200116026483325
0.6102549846731978,2.3579119995017357,-3.5921326667738755,-1.705223957432798,0.3620816526813937
0.6104789856088786,2.358365534948413,-3.5925819346541945,-1.7054626304845388,0.362161286981219
0.6106994862829823,2.3588156567213945,-3.593030486805009,-1.7057005612780927,0.36224008013931314
0.6109165655644088,2.359262420533571,-3.593478302925849,-1.7059377492875374,0.36231804877914
0.6111303005885879,2.359705881023455,-3.5939253634241046,-1.70617419412219,0.36239520917608653
0.6113407667776574,2.3601460917664387,-3.594371649404495,-1.706409895523981,0.36247157726132273
0.611548037862348,2.3605831052871062,-3.5948171426578264,-1.7066448533646803,0.3625471686260099
0.6117521859053415,2.3610169730724366,-3.5952618256491444,-1.7068790676430101,0.36262199852580623
0.6119532813258933,2.3614477455857896,-3.5957056815053656,-1.70711253848165,0.3626960818856312
0.612151392925526,2.361875472281558,-3.596148694002499,-1.707345266124169,0.3627694333046502
0.6123465879146168,2.3623002016203705,-3.5965908475524966,-1.7075772509318894,0.36284206706144356
0.6125389319397293,2.362721981084771,-3.597032127189861,-1.7078084933807083,0.3629139971193263
0.6127284891115397,2.3631408571952917,-3.597472518558008,-1.7080389940578826,0.3629852371317974
0.6129153220332355,2.3635568755268075,-3.5979120078955007,-1.7082687536587953,0.3630558004480844
0.6130994918292705,2.3639700807251565,-3.5983505820221677,-1.7084977729837114,0.36312570011876605
0.6132810581743677,2.3643805165239278,-3.598788228325167,-1.7087260529345376,0.3631949489014504
0.6134600793226824,2.364788225761375,-3.5992249347450374,-1.708953594511588,0.3632635592664892
0.613636612137041,2.3651932503973985,-3.59966068976177,-1.7091803988103698,0.363331543402713
0.6138107121181773,2.365595631530563,-3.600095482380935,-1.7094064670183933,0.36339891322317114
0.6139824334339039,2.365995409415088,-3.6005293021198885,-1.709631800412014,0.36346568037086185
0.6141518289481562,2.3663926234778163,-3.6009621389940962,-1.7098564003533108,0.3635318562244446
0.6143189502498558,2.366787312335079,-3.6013939835035824,-1.7100802682869998,0.3635974519039195
0.6144838476815517,2.367179513809462,-3.6018248266195356,-1.7103034057374034,0.36366247827626597
0.6146465703677882,2.367569264946441,-3.602254659771081,-1.7105258143054602,0.3637269459610341
0.6148071662431738,2.367956602030863,-3.6026834748322414,-1.710747495665791,0.36379086533587773
0.6149656820801126,2.368341560603242,-3.6031112641090868,-1.7109684515638184,0.3638542465420273
0.6151221635161721,2.368724175475879,-3.6035380203271092,-1.711188683812937,0.3639170994896917
0.6152766550810668,2.3691044807487613,-3.6039637366188,-1.7114081942917563,0.3639794338633888
0.6154292002232307,2.3694825098252528,-3.6043884065114593,-1.7116269849413848,0.36404125912719837
0.6155798413359688,2.3698582954275516,-3.604812023915243,-1.7118450577627922,0.36410258452993277
0.6157286197831694,2.3702318696119002,-3.605234583111434,-1.712062414814221,0.3641634191102259
0.6158755759245618,2.370603263783568,-3.6056560787409797,-1.7122790582086658,0.36422377170153347
0.6160207491405189,2.3709725087115556,-3.606076505793235,-1.7124949901114133,0.36428365093704634
0.6161641778563887,2.3713396345430655,-3.6064958595950003,-1.7127102127376492,0.3643430652545141
0.6163058995663546,2.371704670817686,-3.606914135799771,-1.712924728350121,0.36440202290097506
0.616445950856815,2.372067646481332,-3.6073313303772494,-1.7131385392568697,0.3644605319373972
0.6165843674292869,2.372428589899907,-3.607747439603105,-1.713351647809018,0.36451860024322413
0.6167211841228284,2.372787528872691,-3.6081624600489817,-1.713564056398626,0.36457623552082924
0.6168564349359791,2.373144490645475,-3.6085763885727453,-1.713775767456603,0.3646334452998755
0.616990153048221,2.373499501923408,-3.6089892223089928,-1.7139867834506843,0.3646902369415842
0.6171223708409663,2.373852588883594,-3.609400958659779,-1.714197106883463,0.36474661764290917
0.617253119918067,2.37420377718741,-3.6098115952856054,-1.7144067402904848,0.36480259444061996
0.617382431125859,2.3745530919925537,-3.610221130096629,-1.7146156862383946,0.3648581742152938
0.6175103345727371,2.3749005579648457,-3.610629561244119,-1.7148239473231515,0.3649133636952171
0.6176368596482766,2.3752461992897596,-3.6110368871121317,-1.715031526168286,0.3649681694601962
0.6177620350418894,2.3755900396836926,-3.6114431063094274,-1.715238425423224,0.3650225979452811
0.6178858887610514,2.3759321024049864,-3.61184821766158,-1.7154446477616534,0.3650766554444016
0.6180084481490616,2.376272410264693,-3.6122522202033513,-1.7156501958799593,0.36513034811391565
0.6181297399024025,2.3766109856370994,-3.612655113171221,-1.7158550724956834,0.3651836819760768
0.6182497900876255,2.3769478504699975,-3.613056895996208,-1.7160592803460792,0.3652366629224118
0.6183686241578846,2.377283026294729,-3.61345756829678,-1.7162628221866543,0.3652892967170252
0.6184862669689621,2.3776165342359725,-3.613857129872131,-1.716465700789835,0.36534158899981206
0.6186027427950246,2.3779483950213347,-3.6142555806954335,-1.7166679189435838,0.36539354528960516
0.6187180753437997,2.3782786289906506,-3.6146529209075844,-1.7168694794501997,0.365445170987227
0.6188322877716105,2.378607256105165,-3.6150491508107248,-1.7170703851249645,0.3654964713784915
0.6189454026976986,2.3789342959563413,-3.6154442708625143,-1.7172706387951049,0.36554745163709385
0.6190574422186313,2.379259767774672,-3.6158382816698103,-1.7174702432984323,0.36559811682747884
0.6191684279217105,2.3795836904379812,-3.6162311839835763,-1.7176692014825137,0.365648471907569
0.6192783808989086,2.3799060824799283,-3.6166229786925164,-1.7178675162032182,0.36569852173151635
0.6193873217592328,2.380226962097754,-3.61701366681888,-1.7180651903242168,0.3657482710522564
0.6194952706424571,2.380546347160599,-3.6174032495116313,-1.7182622267152483,0.3657977245241783
0.6196022472301271,2.3808642552165598,-3.617791728043694,-1.7184586282522,0.36584688670547094
0.6197082707596209,2.38118070350106,-3.6181791038038544,-1.7186543978147335,0.3658957620607729
0.6198133600331166,2.381495708942914,-3.6185653782965495,-1.7188495382874456,0.36594435496323835
0.6199175334330258,2.381809288173222,-3.6189505531308774,-1.719044052556126,0.3659926696972863
0.6200208089274966,2.3821214575298084,-3.619334630025226,-1.7192379435110334,0.3660407104602277
0.6201232040893622,2.3824322330676173,-3.6197176107900466,-1.7194312140402903,0.3660884813653596
0.6202247360951525,2.3827416305601368,-3.6200994973420975,-1.7196238670374153,0.3661359864428121
0.620325421752022,2.383049665513329,-3.6204802916740606,-1.7198159053887552,0.3661832296434984
0.6204252774838533,2.383356353161153,-3.6208599958883743,-1.7200073319897498,0.36623021483844703
0.6205243193755895,2.383661708487302,-3.6212386121391744,-1.720198149719906,0.36627694582470016
0.6206225631327301,2.38396574620856,-3.6216161427067957,-1.720388361477217,0.3663234263215432
0.6207200241631922,2.3842684808135868,-3.6219925898813052,-1.720577970126953,0.36636965998069837
0.6208167174807631,2.3845699265206104,-3.6223679561224835,-1.7207669785742432,0.3664156503760077
0.6209126578677945,2.384870097353135,-3.6227422438193897,-1.7209553896574608,0.3664614010230184
0.6210078596589541,2.38516900704268,-3.6231154556318037,-1.7211432063017003,0.3665069153545953
0.6211023370786518,2.3854666691847526,-3.6234875939850255,-1.7213304312941256,0.36655219676105794
0.6211961037665319,2.3857630970225396,-3.6238586617995407,-1.7215170676102578,0.3665972485351791
0.6212891734945403,2.3860583037781034,-3.624228661416915,-1.7217031179362194,0.3666420739574598
0.6213815591308778,2.3863523021762183,-3.6245975961655765,-1.7218885853665333,0.36668667617395523
0.6214732741862826,2.386645105159997,-3.6249654680573515,-1.7220734723805766,0.36673105838114867
0.6215643305494163,2.3869367248437467,-3.625332281164199,-1.7222577823434568,0.36677522355541176
0.6216547418531331,2.3872271740762017,-3.625698036645146,-1.7224415172997476,0.3668191748586702
0.6217445185084678,2.38751646413239,-3.626062740063502,-1.722624681218198,0.36686291503846724
0.6218336750820398,2.387804608153215,-3.626426390593309,-1.7228072752122925,0.36690644732504746
0.62192221936679,2.3880916160415215,-3.626788996941803,-1.7229893045850724,0.36694977409720464
0.6220101686283908,2.3883775020688627,-3.6271505538266258,-1.7231707684344284,0.36699289887659176
0.6220975254746334,2.388662273554898,-3.6275110767393475,-1.7233516750000284,0.3670358233523213
0.6221843137560096,2.3889459477497446,-3.627870550527306,-1.723532018990406,0.367078551830515
0.622270525158209,2.389228526665534,-3.6282290054724893,-1.7237118150940773,0.3671210845836005
0.6223561987071948,2.3895100346282594,-3.62858640468519,-1.7238910484359016,0.3671634277999399
0.6224413023913765,2.3897904622424453,-3.628942810816522,-1.7240697478426017,0.3672055786975752
0.6225259094030842,2.3900698500000686,-3.629298139270938,-1.7242478775115435,0.36724754779375224
0.6226099356531412,2.3903481634757155,-3.6296525235824757,-1.7244254972067043,0.3672893255734965
0.6226935303420924,2.3906254794291693,-3.6300057748351944,-1.7246025255209756,0.36733093231845365
0.6227764943558693,2.390901708023033,-3.630358181593741,-1.7247790897466955,0.3673723435257414
0.622859144495511,2.3911770064448974,-3.630709327999106,-1.7249550095406398,0.36741360123620115
0.6229410269338377,2.3914511615624936,-3.631059840904397,-1.7251305591123485,0.36745464738172
0.6230228247754199,2.391724507173582,-3.6314088147900647,-1.72530534520141,0.3674955720196861
0.6231035174764432,2.391996553620132,-3.6317576120755066,-1.7254799600573587,0.3675362411476167
0.6231845841686589,2.3922680212078373,-3.632104285497745,-1.7256535592503042,0.3675768507432752
0.6232637301590324,2.392537789043503,-3.632451779078161,-1.7258274133286682,0.36761709096461853
0.623344205361945,2.3928074572107088,-3.632795988485333,-1.7259997568788223,0.36765740490324744
0.6234209061318555,2.39307446993508,-3.6331430128826816,-1.7261731878037978,0.36769707192405665
0.6235012150436904,2.393342609297554,-3.6334847118843134,-1.7263443116835036,0.3677371863416604
0.6235761908480817,2.3936072627075853,-3.6338306811441585,-1.7265171087749367,0.3677764045994964
0.6236567856736014,2.3938742034109706,-3.6341701196004608,-1.7266872109891778,0.36781644620724696
0.6237340031126479,2.3941387061143082,-3.6345118958859506,-1.726858190601473,0.3678558955313594
0.6238140788460316,2.3944039479932657,-3.634849006440982,-1.7270271157105552,0.3678956677852173
0.6238888994875006,2.394665754760627,-3.635190251138488,-1.7271976467029553,0.3679345507023939
0.6239690001443761,2.394929683073231,-3.635525280602409,-1.7273656049717587,0.367974201695003
0.6240457093626536,2.395191175256405,-3.6358626170641437,-1.7275344197765508,0.3680132542730552
0.6241251876618691,2.3954533841226167,-3.636195457121479,-1.7277012564904073,0.3680526216429205
0.624199660003567,2.3957123009171846,-3.6365321515852274,-1.7278695770392194,0.368091135273895
0.6242789414616515,2.395973097319077,-3.6368630301489833,-1.7280354754537994,0.3681303374825943
0.6243547054543713,2.3962314006550964,-3.6371963113172288,-1.7282022639641732,0.3681689190237235
0.6244333483277328,2.396490507952134,-3.63752512196446,-1.7283671002086232,0.3682078425825713
0.6245073074069915,2.39674650488359,-3.6378574466123452,-1.7285332757973757,0.3682459604416976
0.6245855807119152,2.397004127124984,-3.6381843870705044,-1.7286971943505474,0.3682846843337307
0.6246602650181053,2.3972592276366984,-3.638513775202897,-1.7288620169189992,0.3683227741775239
0.6247378998959353,2.3975151995639172,-3.6388387647195124,-1.7290249329100544,0.3683612279224181
0.6248112641237493,2.3977682908338744,-3.6391668466704488,-1.7291890125413083,0.36839893903265925
0.6248883932872601,2.398022724367669,-3.639490033631488,-1.7293510241312788,0.3684371654191587
0.6249619298792112,2.3982746429770425,-3.639815648983899,-1.7295139282118737,0.368474755291689
0.6250384213438128,2.3985274639546454,-3.640137001230373,-1.7296749968332406,0.3685127201237513
0.6251111112477482,2.398777662851126,-3.6404609726555828,-1.7298370336532356,0.36855001457521996
0.625186998684329,2.3990289140208882,-3.640780581379713,-1.729997212148121,0.3685877326655987
0.6252594462556385,2.399277739624109,-3.6411024498814175,-1.7301582117396546,0.3686248366452905
0.6253346783945456,2.399527402103323,-3.641420329493717,-1.730317498723526,0.36866229661694144
0.6254065789505899,2.3997747005419234,-3.6417403551439063,-1.7304775595398387,0.36869915885912574
0.6254811455784047,2.400022784723956,-3.6420565567686953,-1.7306359797549382,0.36873636197410103
0.6255526234868255,2.400268637772683,-3.642374660998406,-1.7307950742379747,0.3687730050449777
0.6256265025478723,2.4005151447597224,-3.64268921994472,-1.730952642106685,0.3688099485166612
0.6256975263789307,2.400759548408218,-3.6430054480837253,-1.7311107890319712,0.368846368256129
0.6257707009664569,2.401004482633143,-3.6433184034524775,-1.7312675218888447,0.36888305082816486
0.6258412841111113,2.401247457263594,-3.6436327661195738,-1.7314247273560346,0.36891925086064054
0.625913738028938,2.4014908232480336,-3.6439441562215897,-1.7315806422950655,0.3689556713947659
0.6259838896568867,2.4017323867414815,-3.6442566683803816,-1.7317369142972505,0.3689916547130611
0.6260556081118844,2.4019741895677065,-3.644566531347531,-1.7318920286276671,0.3690278124042516
0.626125339060871,2.4022143605777004,-3.6448772082329772,-1.7320473756518941,0.3690635824301676
0.6261963098134645,2.4024546064612147,-3.645185580868495,-1.7322017064601627,0.36909947699068996
0.6262656301265175,2.4026934031519924,-3.645494440986583,-1.7323561387967243,0.36913503723507335
0.6263358468399475,2.4029321011961877,-3.645801355764584,-1.7325097018148312,0.36917066945065347
0.6264047627800774,2.4031695397532875,-3.6461084248473434,-1.7326632333142036,0.36920602312634815
0.626474231914172,2.4034067056367414,-3.646413903974742,-1.7328160406751696,0.3692413960125374
0.6265427426838288,2.403642798647491,-3.646719219330915,-1.7329686906740491,0.36927654560966355
0.626611493803918,2.403878460245128,-3.6470232663596787,-1.7331207477728128,0.36931166617113276
0.6266795901241298,2.4041132160004186,-3.647326878601234,-1.733272541839111,0.3693466132626675
0.6267476837578722,2.4043474178327693,-3.6476294730067065,-1.7334238454098967,0.3693814938999537
0.62681535200538,2.404580842384747,-3.647931440507485,-1.7335748128918258,0.3694162396788465
0.6268828727782966,2.4048136421741093,-3.648232545224281,-1.7337253540779423,0.36945089715618074
0.6269501059686184,2.4050457448903066,-3.648532920889382,-1.733875522412628,0.36948544397103317
0.6270171379270839,2.405277200288811,-3.648832503821232,-1.734025295045298,0.3695198953168555
0.627083945686341,2.40550799899866,-3.6491313244074575,-1.7341746853300317,0.36955424816986043
0.6271505499807974,2.4057381552870525,-3.6494293760873826,-1.7343236925381154,0.36958850684533756
0.6272169545238777,2.4059676741179072,-3.649726666631946,-1.7344723214458748,0.36962267280341615
0.6272831643450183,2.4061965610999496,-3.650023202917098,-1.7346205765789402,0.3696567477501404
0.6273491792010968,2.40642481885658,-3.6503189963067144,-1.7347684642652634,0.36969073252056944
0.6274149906272727,2.406652445333493,-3.6506140649130003,-1.7349159935079903,0.3697246265713315
0.6274805733842841,2.4068794289268434,-3.650908439919036,-1.7350631783453845,0.36975842648451407
0.6275458634809378,2.4071057359049886,-3.651202180990975,-1.735210043429262,0.3697921220510507
0.6276106885918362,2.4073312703238408,-3.6514954220210765,-1.7353566399214948,0.36982568360346496
0.6276744608561472,2.4075556951555135,-3.6517885547170903,-1.7355031050669765,0.36985900442737385
0.6277334076635176,2.4077767972344493,-3.652083646557058,-1.7356500551960912,0.3698913565791353
0.6276581328242659,2.40791888409747,-3.652449853822056,-1.7358145822853146,0.3698975596092509
0.6271200984287431,2.40780865335933,-3.653042768643953,-1.7360312098910984,0.3698104426212964
0.6262324169647784,2.407514804688853,-3.653881516108944,-1.736332588248612,0.3696617699029729
0.6251738772285125,2.407133406385139,-3.654831357467193,-1.7366674849186903,0.3694813075475099
0.6218839006967486,2.4058563855624526,-3.657323701596965,-1.7374353241548097,0.3688514394042784
0.621059056313091,2.4056013114306767,-3.658096280781112,-1.7377069310639417,0.3687120710229618
0.6202889525623239,2.4053736228404614,-3.6588350215667758,-1.737968917386385,0.36858288011467916
0.6188854801228796,2.404803018950282,-3.6600616458912083,-1.7383936651186425,0.3683389527829257
0.6175775831645461,2.404320800098918,-3.6611514079818677,-1.7387570222326012,0.3681204746497578
0.6163681570149934,2.4038657891730013,-3.662180816606428,-1.7391112203488919,0.36791021634881393
0.6152956475466309,2.4034808663745957,-3.663122303413419,-1.7394383292221522,0.3677256526459459
0.6143980367816267,2.4031876088604056,-3.6639408864984513,-1.7397242469602507,0.36757242012959923
0.613270264805683,2.4027727988692744,-3.6649229478465797,-1.7400655298394252,0.36737760964588645
0.6123399095316737,2.4024639695646823,-3.665759876535913,-1.7403559074908692,0.3672181240526889
0.611479570167754,2.4021905498944216,-3.666551733573533,-1.740632739510531,0.36707136796463
0.6105742903623571,2.401890442862588,-3.667392237537291,-1.7409307957452498,0.3669183509550422
0.6098359083348206,2.4016785273779284,-3.6681112187464757,-1.741187082797163,0.36679505140395047
0.60914714894534,2.4014909434236706,-3.668805676095574,-1.7414382122235155,0.3666816770804444
0.608511539083808,2.401330791128161,-3.6694713923230604,-1.741681908844841,0.36657877160822044
0.6077536272095875,2.4011045874994714,-3.6702026734131175,-1.7419407426661053,0.3664506048890646
0.6060520398057523,2.4004162705541887,-3.6715073272933485,-1.7423615700689608,0.3661403668817568
0.6026964051910719,2.3989386833637787,-3.6739054589489744,-1.7431137715102556,0.36552532801440946
0.5992311900892374,2.397406480275619,-3.6763843253653654,-1.7438915268845128,0.3648865659703556
0.5943673844805492,2.395209560302015,-3.6798000063517,-1.744958032952029,0.363977819992914
0.5894230690008979,2.392990659740748,-3.683270603086373,-1.7460360402117239,0.36307017911436906
0.5851121557107395,2.3910704978370725,-3.6863246208202796,-1.7469925820601448,0.36227963962453863
0.5817022727170496,2.3895857368028546,-3.688783114432328,-1.74776740974869,0.361656133980199
0.5787377281201811,2.3883105978432293,-3.6909625839977793,-1.7484623190361606,0.36111697200530346
0.5758930588235623,2.3870904878748394,-3.6930700395106855,-1.749138822235883,0.36060047588725547
0.5730131215652239,2.385849456182688,-3.6952203873744853,-1.7498308828730225,0.3600782852197807
0.5704126678034819,2.3847546818409273,-3.6971635008750146,-1.7504527805888097,0.3596028857134911
0.5680842897702247,2.383794181271738,-3.698930980993245,-1.751023991552463,0.3591818277967325
0.5661224356850495,2.383005310278959,-3.7004713019134954,-1.7515317740477114,0.3588308181775362
0.5645115940308851,2.3823888538154367,-3.7017806591515234,-1.751968948295073,0.3585440231765902
0.5631797644429295,2.3819070128532336,-3.7029131174693175,-1.752354309612554,0.3583107989591644
0.5618000225636192,2.38139522474396,-3.7040962620120723,-1.7527602512985243,0.3580698275351659
0.5604099532145753,2.380875461160429,-3.705299635732322,-1.753174452434769,0.35782789193463543
0.559394816368262,2.380550858910197,-3.7062295769660083,-1.7534995027522566,0.35765326705790046
0.5585602104124554,2.380312908919859,-3.7070521987066223,-1.7537954834786298,0.3575140434273909
0.557911695730591,2.3801682783843687,-3.7077536279173633,-1.7540543438854541,0.35740939852197756
0.5573738862033687,2.3800787838208395,-3.7083853917792764,-1.7542927232246168,0.3573254209364071
0.5568314394987903,2.3799853656883734,-3.7090294599018083,-1.7545378916344345,0.3572416066484573
0.55624466600783,2.3798683072074334,-3.709706515083523,-1.7547947645314426,0.3571499161882532
0.5555813626027345,2.379713145139376,-3.7104255127061436,-1.755062412723309,0.35704243683491727
0.5547945898309554,2.379497542239679,-3.7112294276811135,-1.7553566413748989,0.3569130056194635
0.5540269314910027,2.3792919436316216,-3.7120203968559116,-1.755646908424384,0.3567871396344695
0.5534607221011468,2.3791893872206984,-3.712674647544431,-1.7558931922357526,0.35669814991517745
0.552930306680983,2.3791089781918577,-3.713314565654242,-1.7561362360412809,0.3566184572895916
0.5523753131748239,2.3790092850698734,-3.713974534749082,-1.7563887276337884,0.3565329076791427
0.5510541774397572,2.3785835443238375,-3.715185861568746,-1.7568007889942405,0.3562949707263207
0.5506956479204506,2.3785849183748504,-3.715719361762734,-1.7570144676465769,0.35624616696738753
0.5504587140726221,2.378648138696818,-3.7161740954411906,-1.7572040158361986,0.3562197678456907
0.5497759747568647,2.378491195411697,-3.7169501916953513,-1.7575014315500237,0.3561074590809133
0.5495751535556774,2.3785728682845577,-3.717389246432004,-1.7576882635151347,0.35608868105278374
0.5492823969644263,2.378602614973731,-3.7179121485364606,-1.7579060505277948,0.35605438362193986
0.5491968312451222,2.3787437172675205,-3.718274953138329,-1.7580690602654383,0.3560565018719287
0.5491651491012303,2.378911756077684,-3.718614330584373,-1.7582282697102323,0.35607014000731646
0.5490795985305965,2.3790506584252995,-3.7189918508220763,-1.7584003480905444,0.35607395506213796
0.5490208823476173,2.379203621711505,-3.7193514213581973,-1.7585666975965872,0.3560827755032094
0.5490675600045902,2.3794124659026896,-3.7196370354804333,-1.7587083142242967,0.35611067398071417
0.5491444567378106,2.3796366260549533,-3.7199032866206077,-1.7588441394099914,0.3561440199372489
0.5489085628860833,2.3797005277869565,-3.720389257033595,-1.7590518699496693,0.35611661103653297
0.5488927855029241,2.379875956440144,-3.7207230435740253,-1.7592100758905336,0.3561336205281481
0.5489332512019146,2.380079539580783,-3.721024301156348,-1.759360425977362,0.35616151149847153
0.549076847550457,2.3803380137222816,-3.721255305013177,-1.759487644300076,0.3562081715276063
0.5492676892263877,2.380621712080083,-3.721457523507618,-1.7596062820455023,0.3562637774990691
0.5494803198537224,2.380916456823721,-3.721645531059566,-1.759720594970412,0.35632332768897673
0.5492332858479917,2.3809791207993394,-3.722152842364429,-1.7599396898686774,0.35629441222623565
0.5493544050932456,2.381224973476783,-3.7224029644859002,-1.760074030522653,0.35633734244842247
0.5493563497782762,2.381403999977022,-3.722714279271441,-1.760222998513627,0.35635618822437287
0.549058718262889,2.381432867240701,-3.723198154686137,-1.760419227047317,0.3563178712234384
0.5487094888901001,2.38143285982464,-3.7237253732228495,-1.7606324393315131,0.3562709132582956
0.5485033466427404,2.3815082379678087,-3.724154102181849,-1.7608129528000462,0.35625007683770954
0.5483740804613005,2.381622685093056,-3.7245357141741238,-1.7609798167890156,0.35624373493195616
0.5483050772467243,2.3817680058358297,-3.7248822716844194,-1.761137024444123,0.3562490203815599
0.5482798660949311,2.3819355130951525,-3.725201338787465,-1.7612861407987697,0.3562623766169056
0.5480957836463102,2.3820171690442846,-3.7256242797323167,-1.7614675767296848,0.356245531021387
0.5479481521377324,2.3821216661086213,-3.7260152883457276,-1.7616367197075067,0.35623549186468634
0.5478606535244972,2.38225655617042,-3.7263738840064864,-1.7617978709625721,0.3562373708757853
0.5478293087397642,2.3824203418586145,-3.726695601904619,-1.7619475487803162,0.3562495009891099
0.5476795913460766,2.382521081033758,-3.7271034242429444,-1.7621267701565688,0.3562405500142011
0.5473923850895941,2.3825501755022387,-3.727581430441803,-1.7623214892536168,0.3562030922101001
0.5463458051163423,2.3822115673105073,-3.7285295241089154,-1.7626512137482557,0.3560215413972918
0.5454021254748082,2.3819233432445506,-3.7294156314571056,-1.762963704068787,0.35586069466537446
0.5446395960576298,2.3817234050270786,-3.730188347574999,-1.7632433820819278,0.3557342890879233
0.5440310947760009,2.381599107649874,-3.730863415328265,-1.7634943400803178,0.3556366846106062
0.543549998023425,2.381537397334321,-3.7314615647698335,-1.7637237990094554,0.3555636240616244
0.5431859665488267,2.381534133819887,-3.7319853385227555,-1.7639311359600192,0.35551240456566485
0.5429131887673381,2.3815764011414466,-3.732455315275069,-1.7641237024966516,0.35547887532654415
0.5427336606410769,2.3816657602182816,-3.7328674295613635,-1.7642993379728973,0.355462902194227
0.5426244856393483,2.381790770593506,-3.733237408912263,-1.7644630868180566,0.3554603679227521
0.542577162838466,2.3819472890075626,-3.7335705207258805,-1.7646164627032956,0.3554696467562637
0.5425856228456838,2.3821324445084757,-3.7338710887969815,-1.764760838880855,0.3554896658693442
0.5426374037707545,2.382339668232517,-3.7341450917074503,-1.7648975422489965,0.3555177979408922
0.5426537078345732,2.382528022914652,-3.7344543929589156,-1.7650475386721132,0.3555403441216447
0.5425695826219626,2.382662922244742,-3.7348228593561914,-1.7652159078652587,0.3555429602735547
0.5425706241177901,2.382842963411747,-3.7351381984622773,-1.7653673327117367,0.35556255944209436
0.5425208266489928,2.3829961870490766,-3.7354824647376668,-1.7655269977971366,0.35557231107545606
0.5425500105656001,2.38319066445346,-3.735768751936966,-1.7656669957068303,0.35559618814451627
0.5426202819556623,2.3834060756287307,-3.736029642129304,-1.7657995969525708,0.3556277259326534
0.5427104870592796,2.3836319667252894,-3.736284863605908,-1.7659324015583844,0.35566375857104343
0.5428685185559801,2.3838932315703407,-3.736498815888321,-1.7660532189648603,0.35571261624075157
0.5430673486314262,2.384175855558389,-3.7366864047659245,-1.7661658612648572,0.35576900298052294
0.543292561093425,2.38447256290326,-3.7368609803118824,-1.7662755544651518,0.3558307291122539
0.5435541155340092,2.384788476917293,-3.7370141826922736,-1.7663791466864465,0.35589936865934174
0.5438352312721075,2.385114424457067,-3.7371551663844955,-1.766479136223595,0.35597164724580094
0.5441348674098426,2.385450450253521,-3.737288515097432,-1.7665779089893576,0.3560478178714846
0.544465489207289,2.3858030004573814,-3.7374031011247877,-1.76667111882804,0.35612982862596315
0.5448100821599385,2.386162685073676,-3.7375088485424386,-1.7667616966194288,0.3562144358335288
0.5451678049949228,2.38652961278385,-3.7376092171809283,-1.7668514110970683,0.3563018073673817
0.5455488415562323,2.38690899185114,-3.7376958826453546,-1.7669371741659146,0.35639360663545094
0.5459393663155666,2.387293047471612,-3.7377759968002455,-1.7670208624101682,0.35648711982965325
0.5463386203297367,2.3876820085894677,-3.7378533419463,-1.7671044394745001,0.35658255382592047
0.546757737913566,2.3880815986688044,-3.737918826164087,-1.7671845266621564,0.3566817431460652
0.5471831916542753,2.388484132749154,-3.737979417534416,-1.767262959529994,0.35678203507188755
0.5476142414987042,2.388889858376903,-3.738038757027388,-1.7673416224016139,0.3568836154809347
0.5480614101064736,2.3893041774271127,-3.7380883682551573,-1.7674173906977029,0.356988233732351
0.5485122525153143,2.3897199638678637,-3.738134493047764,-1.7674918665247814,0.35709344013279093
0.5489663304075504,2.39013762766175,-3.738180470069395,-1.767566810627266,0.3571994558549865
0.549433596744752,2.39056227163848,-3.738218337536201,-1.7676393005692226,0.3573079443644427
0.5499024179234496,2.3909871970848258,-3.7382538278434105,-1.7677107825486535,0.3574166112388416
0.5503726773411992,2.3914129863486484,-3.738289995736718,-1.7677829076733176,0.35752572172191965
0.5508538677998005,2.391844500942001,-3.73831926765774,-1.7678529006748898,0.35763686733005673
0.5513349852714409,2.392275380751431,-3.738347011665537,-1.7679221037177626,0.357747876614049
0.5518161831670747,2.3927063495857035,-3.738376035199127,-1.7679920707767802,0.3578590513885635
0.5523065143205756,2.3931420362029034,-3.738399110723142,-1.7680601531986875,0.35797191148603863
0.5527955441165916,2.393576397285742,-3.738421310977572,-1.768127617053744,0.35808439913223983
0.5532836594970464,2.3940102711870312,-3.7384451959901934,-1.7681959134263225,0.3581968451065311
0.5537793756316027,2.394447996873072,-3.738463928092884,-1.7682625306372823,0.35831067738892847
0.5542729306935473,2.394883924279227,-3.7384822875437713,-1.7683286738940838,0.3584239763483516
0.5547649470689785,2.3953189864318487,-3.7385024922208188,-1.7683956386969915,0.3585370944423566
0.5552629340358347,2.395756967010834,-3.73851836713566,-1.7684611343198895,0.3586512793887164
0.5557585053928958,2.3961930635030084,-3.7385342314791132,-1.7685263112509697,0.35876490295991076
0.5562525881083658,2.3966282455068324,-3.7385514924367222,-1.7685920595753364,0.35887831345678844
0.556748866444347,2.397064127967754,-3.738566139652561,-1.7686567357628193,0.35899203795154444
0.5572438346691827,2.3974990636928797,-3.7385814926787284,-1.7687216233276266,0.3591055267261375
0.5577355203628305,2.397931487661229,-3.7385967399322584,-1.7687860174068364,0.3592182370510349
0.558223874760437,2.398362093779705,-3.7386151702931913,-1.7688517079605357,0.35933045010572007
0.5587191038293337,2.3987961705882452,-3.73862874643932,-1.7689157590776905,0.3594439009881814
0.5592103609586051,2.3992273403489786,-3.738642555729046,-1.7689793994561818,0.3595564385786306
0.5596977025140033,2.399656365180935,-3.7386598729080442,-1.7690444266418452,0.3596683651411189
0.5601915171781576,2.4000886384393314,-3.7386725291258216,-1.769107857556805,0.3597814497764035
0.5606808987184867,2.400517731989704,-3.7386856088865636,-1.7691709134193274,0.3598935278257154
0.5611658254605673,2.400944385001642,-3.738702542195313,-1.7692354658271263,0.3600048939194261
0.5616570731438092,2.401374206390492,-3.7387148645714077,-1.769298423072414,0.3601173858073737
0.5621435532640526,2.401800645515303,-3.738727725539314,-1.7693610187086681,0.360228801551707
0.5626250860004796,2.4022243777985635,-3.7387447837165553,-1.769425227060319,0.36033941551292864
0.5631129156828563,2.4026512707364795,-3.7387572040575945,-1.7694878180215738,0.3604511471060649
0.5635957278085174,2.403074628067234,-3.738770237309308,-1.7695500511236424,0.36056174966090626
0.5640731557136748,2.403495044100071,-3.738787785170805,-1.7696140070536195,0.36067147174709857
0.5645568976413583,2.4039186354210336,-3.738800642729744,-1.7696763156229074,0.3607823109437712
0.5650354114120213,2.4043385621332467,-3.738814173816815,-1.7697382685243064,0.3608919764395606
0.5655081502373459,2.4047553394658543,-3.738832515437743,-1.7698020494781777,0.3610006920195356
0.5659872548308477,2.4051753254837402,-3.738846092172675,-1.7698641462506868,0.36111053059185866
0.5664609442655537,2.4055915325216373,-3.7388603949598354,-1.769925888740029,0.361219155731887
0.5669284986161102,2.4060044004709793,-3.7388797972819767,-1.7699895654386686,0.3613267682642794
0.5674025204780875,2.4064205378492276,-3.7388943260784058,-1.770051509823876,0.36143551873714136
0.5678709574028235,2.4068327923452815,-3.7389096266927027,-1.7701131002912758,0.36154301956538004
0.5683329188214948,2.4072415306868806,-3.738930318593133,-1.7701767358280578,0.361649450053775
0.5688015050313229,2.40765362937356,-3.738945987599876,-1.77023857663877,0.36175704326623037
0.5692643416863161,2.4080617445409125,-3.7389624726508397,-1.7703000639638038,0.3618633517085908
0.5697203721763404,2.4084661740177324,-3.7389846538110025,-1.7703637162051593,0.36196853550852515
0.5701832483905149,2.4088740889868125,-3.739001612254317,-1.7704254927407919,0.3620749177824176
0.5706401998996697,2.4092779138431633,-3.7390194368609992,-1.7704869180656368,0.3621799781394204
0.5710900141628531,2.4096778860154884,-3.739043288500711,-1.7705506429224023,0.36228386161125825
0.5715469725868982,2.4100815099668416,-3.739061651107572,-1.7706123855722984,0.3623889922499862
0.5719977995177035,2.4104809190928727,-3.739080946880938,-1.7706737840699265,0.36249275770858397
0.5724411475190874,2.4108763063958825,-3.7391066430047992,-1.7707376391071745,0.36259529498273046
0.5728920346065801,2.4112755620343505,-3.7391264934475745,-1.7707993693847537,0.3626991436252788
0.5733365271272342,2.4116704465595395,-3.7391473768796115,-1.7708607724688736,0.3628015731898433
0.5737731850855932,2.4120611366879916,-3.7391750859601576,-1.7709248163470477,0.3629027241449235
0.5742178775815444,2.412455962083901,-3.7391964851916897,-1.770986547930666,0.3630052657746907
0.5746558608049963,2.4128462347401003,-3.7392190624183193,-1.7710479865061746,0.3631063259622217
0.5750856801271579,2.413232154945629,-3.7392488790977634,-1.7711122475683332,0.36320606232215386
0.5755240151192248,2.4136224650634324,-3.739271907979467,-1.7711739994716422,0.36330726426109894
0.5759554101678688,2.4140081000953115,-3.739296261497628,-1.7712355053983124,0.3634069425699137
0.5763784724893602,2.414389297782404,-3.7393280191542155,-1.771299899232946,0.3635052697168127
0.5768101760014362,2.414774954489939,-3.7393528621961654,-1.7713617308552325,0.3636050815774921
0.5772348534881327,2.415155887937482,-3.7393790642413642,-1.7714233234729113,0.3637033524718968
0.5776509676915146,2.4155322725680195,-3.739412949766609,-1.7714879247456932,0.363800239512961
0.5780760231708353,2.415913273716816,-3.7394396084028276,-1.7715498334799622,0.36389865685590805
0.578494059469104,2.4162895743097605,-3.73946768442032,-1.7716115362014535,0.3639955400880089
0.5789035797284138,2.4166613405818436,-3.7395032776587716,-1.7716761593247536,0.36409103672571913
0.5793217340594061,2.4170375723733413,-3.739531982186745,-1.7717382322126007,0.3641880177704415
0.5797327230856266,2.4174089867329114,-3.739562028214495,-1.7718000384277606,0.36428342359803123
0.5801344082251899,2.417775501491484,-3.7396007965068963,-1.7718653222622638,0.3643773521317019
0.5805460068267192,2.418147092362998,-3.7396310197879616,-1.7719273275434972,0.3644729365298787
0.5809526758171425,2.4185154567079006,-3.7396626868658496,-1.7719894279034614,0.36456748356471164
0.5813550633498283,2.4188813198403976,-3.739697049652735,-1.7720523738391474,0.36466124355794005
0.5817528503114375,2.4192438426909186,-3.739731382601024,-1.772114676208745,0.36475392307517185
0.5821422058387259,2.4196018788813545,-3.739773122137254,-1.7721798463602365,0.36484522601765484
0.5825401463112208,2.4199643756854923,-3.739808124384918,-1.7722425431807185,0.36493801301335427
0.5829308765034645,2.420322002224741,-3.7398443353860027,-1.7723048981402367,0.3650292030147408
0.5833105028331428,2.420673802808208,-3.739891544117271,-1.7723717322402905,0.36511866706826995
0.5836974110716342,2.421028699034772,-3.7399286946578396,-1.772434082576138,0.36520904895064743
0.5840723094198891,2.4213772542705616,-3.7399775853078236,-1.772501196688135,0.3652975499147747
0.5844558361711867,2.421729734155612,-3.740015676184338,-1.7725636037142536,0.3653872290238113
0.5848298969931391,2.422077240997147,-3.7400626191806925,-1.7726295306466082,0.3654754014364292
0.5852142657445341,2.422430076739645,-3.74010089112398,-1.7726921665650812,0.3655653112224969
0.5855936528703124,2.4227796244372177,-3.7401404430949494,-1.772754806719406,0.36565415875511464
0.5859681565946844,2.4231264350073323,-3.7401835003253,-1.7728186519122815,0.3657421442084065
0.5863428411137184,2.4234728284912763,-3.740224655192826,-1.7728815078946574,0.3658300264145019
0.5867132920145992,2.423816793384964,-3.7402686620742767,-1.7729453002283069,0.36591714442770196
0.5870801712126269,2.424158019792124,-3.7403120571258492,-1.7730082830345766,0.3660033785253467
0.5874383183555433,2.4244946184094847,-3.7403631985499346,-1.7730742733397633,0.3660881903873293
0.5878055201390542,2.424835948075359,-3.74040724880732,-1.7731376612500704,0.3661745674380764
0.5881653714354238,2.4251723131528355,-3.740452450324254,-1.7732006612053386,0.3662593099056887
0.5884936017973902,2.425490525992314,-3.7405181992049155,-1.7732704485223496,0.3663382089581016
0.5888103093247969,2.4258044304890527,-3.74060784425036,-1.7733519012395567,0.3664163690914064
0.5891889791584323,2.426151178932588,-3.7406432654109563,-1.7734124102104663,0.36650480779087574
0.5895502276043576,2.4264884186870295,-3.740693346409822,-1.7734785181697774,0.36659032292525506
0.5899240188449417,2.42683235240486,-3.7407324156031367,-1.7735402917448078,0.3666779142307403
0.5902901833603713,2.427171104146493,-3.7407725035947452,-1.7736015631979818,0.36676379735009595
0.5906313197965402,2.4274955677305483,-3.7408299703406476,-1.7736688596737593,0.3668451739328265
0.5908845337900924,2.4277705703157815,-3.740951056657397,-1.7737586092434183,0.3669109432332054
0.591190517738677,2.428075940727999,-3.7410408535615307,-1.7738388785647956,0.3669866411405466
0.591333528322288,2.428290735034789,-3.7412469053991737,-1.7739569596118885,0.36703263793519214
0.5914727722621274,2.428521292128492,-3.7414428672210094,-1.7740663324557004,0.3670819213853014
0.5918007041345604,2.4288370295930433,-3.7415017223512272,-1.774132314480251,0.36716032792871345
0.5921327073767598,2.42915478558023,-3.7415573224794527,-1.7741970873029873,0.36723943062713066
0.5924602877740147,2.4294694036956077,-3.741613042846272,-1.7742613274584251,0.36731750919765427
0.5927791714095249,2.4297792621501384,-3.7416751614122328,-1.7743278095270203,0.3673940626278633
0.5931024761284908,2.4300913417205265,-3.74173384144377,-1.774393033208769,0.36747137990193424
0.5934215614266523,2.43040039526802,-3.741792502003702,-1.7744576797008391,0.36754770977005424
0.5937318114666692,2.4307046361868268,-3.7418578180256534,-1.7745246919558608,0.3676225031641576
0.5940472018031515,2.4310115112707047,-3.741919259495964,-1.7745903105767737,0.3676981952387619
0.594359097184479,2.431315793023202,-3.74198036144833,-1.7746552814868723,0.3677730449474958
0.5946627830185692,2.4316155945473086,-3.742047599196002,-1.7747224211419703,0.36784646322990666
0.5949711293323005,2.431917756755514,-3.7421112930255482,-1.7747882804517416,0.36792069294406066
0.5952750798901113,2.43221676478536,-3.7421749198090306,-1.7748535168761403,0.3679938897495097
0.5955690898356601,2.432510426675759,-3.742246556844677,-1.7749217127771828,0.3680653999175735
0.5958707069401372,2.432808104724864,-3.742312567449208,-1.774987904717025,0.36813825015842744
0.5961700275894951,2.4331039101001433,-3.742377727157495,-1.7750533410849647,0.36821049934827127
0.596462250963719,2.4333958247245597,-3.742448115762492,-1.7751206050383652,0.36828150455605124
0.5967581504883518,2.433689521544911,-3.742515505785287,-1.7751867490907915,0.3683531323646446
0.5970481932752745,2.433979202465432,-3.7425834736763672,-1.7752524171255124,0.3684234343174504
0.5973258486249009,2.4342623446350427,-3.7426626471076476,-1.775322467064208,0.36849172915238626
0.5976163724628394,2.434552298527728,-3.7427314804707734,-1.7753886625277895,0.3685622248168948
0.5979011491736627,2.434838345638715,-3.742801025293346,-1.775454468910031,0.3686314319095751
0.5981746593514294,2.4351184137012294,-3.7428803685099514,-1.7755240371666643,0.3686987838356927
0.5984590911573665,2.4354043005656,-3.7429513943288764,-1.7755905884688143,0.3687680393854946
0.5987392066960476,2.4356870454132706,-3.743022112784808,-1.775656404908473,0.3688362612179879
0.5990073986089351,2.435963485341183,-3.743103445564163,-1.7757263404130093,0.36890253790406724
0.5992877492282018,2.4362463933284637,-3.7431752947570147,-1.7757927911272864,0.3689709156249429
0.5995625025295339,2.436525395238046,-3.7432473727757034,-1.775858618761442,0.3690380001587171
0.5998217211196403,2.436796191971381,-3.743334167454109,-1.7759303151826062,0.3691026091853274
0.6000932769047859,2.4370729230078996,-3.7434070384807088,-1.7759961449909105,0.36916901668198054
0.6003481004024236,2.437340755103245,-3.74349548554384,-1.7760681596399668,0.36923273734898443
0.6006187946064095,2.437616813066202,-3.743569040685572,-1.7761342499565465,0.3692990134710179
0.6008841131703798,2.4378899177062268,-3.7436466096223833,-1.776201744053184,0.3693643499391934
0.6011517591201909,2.4381639726830184,-3.7437215991763204,-1.7762681777313682,0.36943003041817096
0.6014162258113335,2.4384360112260945,-3.743797850655562,-1.7763348441818538,0.3694950666092582
0.6016775244785502,2.438705987246193,-3.743875090651642,-1.7764016072868973,0.36955944180013645
0.6019357940748916,2.4389741307592496,-3.743954017478867,-1.7764688398827297,0.36962323818612447
0.6021888949330911,2.439238676587674,-3.744033184656533,-1.7765355194371772,0.3696858438906186
0.602427594422879,2.439495669851069,-3.7441262610867887,-1.776607782066788,0.369746178392174
0.6026795566087455,2.4397591784555344,-3.7442053530728834,-1.7766742919519627,0.36980852412798826
0.6029178681920114,2.4400155402849815,-3.7442975115040498,-1.776746026505199,0.3698687101241098
0.6031708652201896,2.440279472386691,-3.7443763175062794,-1.7768125487706539,0.36993129374492667
0.6034187042318482,2.4405405936947364,-3.7444591228491064,-1.7768804990917213,0.36999298781573564
0.6036694979230613,2.440803032132987,-3.744539018166565,-1.7769472991967263,0.37005514704992176
0.6039174790743711,2.441063662722663,-3.7446199537851945,-1.7770142675432978,0.3701167312426477
0.6041627485197648,2.4413225407456958,-3.744701862689086,-1.7770813833794679,0.3701777590447226
0.6044054240704813,2.4415797476611565,-3.744784754585992,-1.7771486666664,0.37023825840948416
0.6046455181247488,2.4418352501830562,-3.74486841305886,-1.7772160103167776,0.37029821697719545
0.6048831315437357,2.442089228559767,-3.7449534283263004,-1.7772837257303478,0.37035769986049166
0.605116196236416,2.4423400020822883,-3.7450384864164743,-1.7773508715410145,0.3704161228969285
0.605335363769579,2.4425835046765947,-3.7451370038402105,-1.7774234224375207,0.37047235873550693
0.6055689633155099,2.4428342916396226,-3.745221490312979,-1.7774903671844944,0.37053087812065505
0.6057930267579776,2.4430800355803695,-3.745314312336477,-1.7775605107090175,0.37058783124886396
0.6060270622798775,2.4433311356605403,-3.745399982576127,-1.7776281495286614,0.37064655619661235
0.6062575621041106,2.4435794603555743,-3.7454844406106838,-1.7776946900280608,0.3707043572875704
0.6064087042875915,2.443785309619012,-3.7456267467876514,-1.7777805008074454,0.3707480690137223
0.6065729920661335,2.443997612199922,-3.745768105569638,-1.777869078958819,0.37079485617573826
0.6066068484832071,2.4441591244366485,-3.7460006283898974,-1.7779833665387736,0.37082313488289564
0.6068410191757522,2.4444099556671066,-3.7460905874127866,-1.7780536751567395,0.37088228844102755
0.6070910697629702,2.444669128416128,-3.74616599413643,-1.7781182106821838,0.3709440195958681
0.6073363795104855,2.444925436479111,-3.7462436896410987,-1.77818329503621,0.3710048154346209
0.6075757344706542,2.445177815661374,-3.7463225079468456,-1.7782481815585423,0.371064308972301
0.6078041021283198,2.4454242889628057,-3.746410161851155,-1.7783163171334573,0.37112192944335565
0.6080401653153248,2.445674815220739,-3.74649191039408,-1.778382292045294,0.3711808824748981
0.608270030847317,2.4459209333362195,-3.746573329087945,-1.7784472708386252,0.3712383544962817
0.6083225044044317,2.4460705772588285,-3.746793896646487,-1.7785614983846523,0.3712649244874306
0.6084495774095767,2.446259997995444,-3.7469617977441376,-1.7786599124247913,0.37130519339279916
0.6085392982976585,2.446424897993207,-3.747141643397446,-1.77875865506622,0.37133708851336505
0.6083870672254834,2.4464628164870756,-3.7475018654674646,-1.7789121411216176,0.3713246915023423
0.6085023127480883,2.4466444751330805,-3.7476590419906395,-1.7790020905781034,0.37136121806475664
0.6085366705214907,2.446779770105797,-3.7478689853756615,-1.7791095593723614,0.3713828871927001
0.6086583623345876,2.446963666777383,-3.748009698412275,-1.7791910147210759,0.3714195670495562
0.6088007260712989,2.4471583950938895,-3.74813216358732,-1.7792654419135518,0.3714596568550299
0.6089365927421772,2.4473496641195944,-3.7482600311695244,-1.779341882124991,0.371498665951424
0.6090791258100267,2.4475444788137386,-3.7483836031596733,-1.7794169407286875,0.37153890040182097
0.6092235282370209,2.4477399413886416,-3.7485046128366646,-1.77949092234158,0.3715793754453571
0.609364488514181,2.4479335294240263,-3.7486284601976916,-1.7795659418899417,0.3716192740127487
0.609508425952996,2.448128446100538,-3.748749429665719,-1.7796398573787007,0.37165964663947154
0.6096505268366487,2.4483222619742318,-3.7488716863350633,-1.7797141963560204,0.37169969043460543
0.6097906024203943,2.448514379055002,-3.7489927528379723,-1.7797876708765772,0.3717391663769294
0.6099187859855654,2.4487002269534273,-3.749124530817047,-1.779865318842691,0.3717767231147714
0.6100607632293232,2.4488935463267882,-3.749246465163825,-1.7799395466163754,0.37181673975693286
0.6102058963129856,2.449088309609775,-3.74936547588103,-1.7800126663468707,0.37185726815891157
0.6103493284201407,2.4492820184000452,-3.7494855191520102,-1.780086094498407,0.3718974791394917
0.6104905815096678,2.4494740103102846,-3.7496047775006436,-1.7801588493212757,0.3719371206716894
0.6106224637363468,2.4496610421969063,-3.749732081079177,-1.7802346603862456,0.37197521889275476
0.6107638641552472,2.449853221755101,-3.749852997221836,-1.7803083478884882,0.37201504869262625
0.6109091791885541,2.450047315200677,-3.7499707889304856,-1.7803809112379823,0.3720555494798481
0.6110529080931533,2.450240242631358,-3.750088549436559,-1.7804532636075976,0.3720956817278373
0.6111937894364242,2.4504315986081586,-3.750208641688272,-1.7805264580577171,0.37213533258982223
0.6113354894383828,2.4506229320077275,-3.7503263008982914,-1.7805985096378643,0.37217498796252657
0.6114704463166377,2.4508106833460035,-3.7504495839198677,-1.7806726571662868,0.37221351986049533
0.6116120601823899,2.451001989983628,-3.750568559939262,-1.780745409100066,0.37225327258167584
0.6117549990226151,2.451193593519121,-3.7506849813783654,-1.7808170184535306,0.3722931395094006
0.6118925056127832,2.45138229993519,-3.750805897638572,-1.7808902890567457,0.372332097738616
0.6120353823888738,2.4515738068876947,-3.7509231854355485,-1.7809623485390416,0.37237202526940455
0.6121759846852602,2.4517633999063033,-3.7510390201985464,-1.7810333717474063,0.37241130438620756
0.6122978476493888,2.4519430745052713,-3.7511726834696697,-1.7811115123411012,0.37244761082901423
0.6124392186336606,2.4521327549730025,-3.7512875300867194,-1.7811821525812614,0.3724870050385777
0.6125611871858235,2.4523121404533716,-3.7514206929049387,-1.7812600901272457,0.3725233097641589
0.6127039852090398,2.452502394706479,-3.7515347103964443,-1.7813305179297219,0.3725629905974966
0.6128365583765807,2.452687242433312,-3.7516575470209212,-1.7814043024908317,0.3726009866048601
0.6129792833606316,2.452877595593302,-3.7517734407584786,-1.781475740726448,0.3726408173006629
0.6131255637343958,2.4530696509890664,-3.75188627855944,-1.781546044981917,0.372681241658828
0.6132702119994647,2.4532606213397252,-3.7519996601735244,-1.781616419195147,0.37272132857274975
0.6134133239692943,2.4534505571140537,-3.752113511663382,-1.7816868386472333,0.3727610950511791
0.6135549678723218,2.453639513099111,-3.7522278891006935,-1.7817573397994955,0.3728005608453474
0.6136952371188126,2.4538274919091116,-3.752342454978573,-1.781827766566615,0.3728397237395536
0.6138337936971353,2.454014446797311,-3.7524582274492717,-1.781898587878521,0.37287857832923255
0.61396957260836,2.454199203156423,-3.7525727961633515,-1.7819684393733468,0.372916686316049
0.6140369784920918,2.454347464019632,-3.7527405902886444,-1.7820567996871988,0.37294279267148484
0.6141304198323297,2.4545100765039742,-3.752899744429984,-1.7821454556453389,0.37297457338413864
0.614286510459453,2.454707143543395,-3.753013056768397,-1.7822178539151106,0.37301742920367953
0.6144598958812747,2.4549129539445342,-3.7531086827406694,-1.7822830348169263,0.37306294787994965
0.6146159616461737,2.4551095609351763,-3.7532193492907213,-1.7823539683870808,0.3731056012267456
0.6147876913748039,2.4553145450475355,-3.753317412071857,-1.7824201864133584,0.37315092460755817
0.6149544991850389,2.4555160492077075,-3.7534151515028276,-1.7824856005557208,0.3731950710319556
0.6150884236974795,2.4556995579868537,-3.753538943795753,-1.782560608737792,0.3732335681551043
0.6152384221294338,2.4558919655666953,-3.7536507361057243,-1.7826313109739333,0.3732748988458469
0.6154025528011341,2.456091982628205,-3.7537516334357863,-1.7826980247906141,0.37331867692438314
0.6155645333896927,2.4562901656751825,-3.7538510122411033,-1.782763675633821,0.37336183650527593
0.6157118253788817,2.4564805419565774,-3.753962935580896,-1.7828340835566585,0.37340255238505843
0.6158719901116595,2.4566778632397095,-3.7540651233760527,-1.7829009664707742,0.3734455135616013
0.6160317953883007,2.456874479613885,-3.754165342917085,-1.7829667831047735,0.37348824205398085
0.6161831861766716,2.457066564398139,-3.754272066290965,-1.783034923727018,0.3735295156823324
0.6163395564087373,2.45726127017071,-3.754375316702222,-1.7831018638401248,0.3735716779324139
0.6164947954575059,2.457454758683092,-3.7544766633920017,-1.7831676743701161,0.3736134311155613
0.6166378578182602,2.4576417507811956,-3.7545880657776376,-1.7832372292970848,0.37365313193188304
0.6167903191672047,2.457833817592337,-3.7546926933831717,-1.7833044027305276,0.3736945001657007
0.6169446440663832,2.4580265851914302,-3.7547948535775983,-1.7833705258844443,0.3737361142791842
0.617095471314081,2.458217344582979,-3.754899315569698,-1.7834373691817837,0.3737770831219163
0.617242253987088,2.4584050586050723,-3.7550026260804676,-1.783503097997451,0.3738170127090507
0.6170927258327409,2.458432313655116,-3.755341635588841,-1.7836496878236685,0.3738044506797521
0.6172229029864448,2.4586100744280457,-3.755452262153665,-1.7837169881975297,0.37384104659604983
0.6160677651664636,2.458168302073066,-3.756497295494429,-1.7840960934195114,0.37363772711530086
0.6160597927965155,2.4582670348800275,-3.756707450056557,-1.7841982237192606,0.3736493912678038
0.6159520500015121,2.458338999774321,-3.756975951918553,-1.7843102698694588,0.3736484648251402
0.6160309665260031,2.4584868625735252,-3.7571104179104298,-1.7843829948552534,0.3736748309398739
0.616008166142569,2.458578317490145,-3.7573267354815942,-1.7844866485254527,0.37368387975008577
0.6160798149047271,2.4587224856797167,-3.7574685956387377,-1.7845623440671798,0.3737091609705399
0.6161612064204711,2.4588719676218616,-3.7576044978822574,-1.7846362014077939,0.37373626197612714
0.6162489218544693,2.4590247526442788,-3.7577361144250023,-1.7847086574702142,0.3737645084392753
0.616337265796028,2.4591776336154125,-3.757866427630311,-1.784780553134442,0.37379280995527686
0.616423131489589,2.459329264648556,-3.757999482637361,-1.7848535773502965,0.3738207566172052
0.6165152285114377,2.4594841584615312,-3.7581283597189308,-1.7849252366648902,0.37384983358890916
0.6166072707533842,2.4596386483940154,-3.7582556887928016,-1.7849961234950538,0.37387878487985843
0.6166922926382485,2.459789482080262,-3.758389428458168,-1.78506950527997,0.37390661394349883
0.6167864183245014,2.459945278612306,-3.758517494628306,-1.7851411033049205,0.3739361335823779
0.616886057643366,2.4601039241376847,-3.758641665705164,-1.785211391315878,0.3739666389265877
0.6169856238807404,2.460262282183894,-3.7587649668048915,-1.7852812460384968,0.37399706822477974
0.6170825551822882,2.4604192769641036,-3.7588909381294737,-1.78535216008357,0.3740270955310182
0.6171843209244922,2.460578704156621,-3.759013144341521,-1.7854217549487719,0.3740579638470413
0.6172855955342583,2.460737797675272,-3.759135880110655,-1.7854915530358653,0.374088756378725
0.6173854151940833,2.4608955039054057,-3.7592568416316157,-1.7855602764521745,0.3741190716029315
0.6172722168079274,2.460963590992566,-3.7595342317627045,-1.785676938807977,0.3741179939724991
0.6172883814500845,2.461073586657795,-3.759707714936195,-1.7857611720947626,0.3741328343581005
0.6169316651306066,2.460986130854348,-3.7601573231668644,-1.7859333448171815,0.37408024130510187
0.6169029540194065,2.4610712573263567,-3.760341430993025,-1.7860172372853074,0.3740850369232812
0.6168326277155369,2.461134360558108,-3.760566153196997,-1.7861175271986711,0.37408343688199014
0.616658842033777,2.46115849675781,-3.760877376018446,-1.7862461386809647,0.374068482574211
0.6166997399858433,2.461282667225441,-3.761031615220768,-1.7863243353400642,0.3740875584957968
0.61675553279352,2.461414925325737,-3.761175573137928,-1.78639903785628,0.37410931602003306
0.6168167749507014,2.4615499426436624,-3.7613153641358106,-1.7864722986020194,0.37413202616644503
0.6168777333702202,2.4616847462802776,-3.761455651047769,-1.786545768372148,0.37415470528071004
0.6169372394883723,2.4618181366992964,-3.761593827689275,-1.7866179976388095,0.3741768737304637
0.616892370297728,2.4618936440784402,-3.761813448981385,-1.7867203271625849,0.3741810199870947
0.616898976362974,2.4619989005911695,-3.7620053562036446,-1.7868148427063633,0.37419510785338866
0.6169878634360413,2.462148524760988,-3.7621284541876845,-1.7868832984277663,0.3742230515416628
0.6170398307337469,2.46227740513418,-3.7622774493074242,-1.7869607966228407,0.3742443157620134
0.617072442810528,2.4623966936828494,-3.762448800966455,-1.787047773563933,0.37426290056948663
0.6170941992921444,2.4625092482030526,-3.762633876240026,-1.7871399815562066,0.3742796535561974
0.6171440879177268,2.462635211581164,-3.7627735931469055,-1.787211000027812,0.3742993276476248
0.6168723730555432,2.462589727481861,-3.763158824563178,-1.7873628324931476,0.3742615109524444
0.6168735586464776,2.462690045562055,-3.7633286851527163,-1.7874436441579216,0.3742724536018241
0.6168841813797548,2.462795433356324,-3.7634927964170846,-1.7875226965291402,0.37428515885048436
0.6169008876932943,2.4629039051324093,-3.763652313802444,-1.7876001884899035,0.374298933579521
0.6169175083795362,2.463012336207535,-3.763812662580965,-1.7876781006783184,0.3743127565252786
0.6169360236424317,2.463121275565348,-3.763969243281709,-1.787754355676656,0.37432672093137337
0.6168811682733278,2.463191558752088,-3.7641822813625234,-1.7878501204645594,0.37432793126429315
0.616722563263638,2.4632027534589054,-3.764467635981575,-1.7879715866153991,0.3743103541968225
0.6166430171938004,2.4632580226059204,-3.7646995685967894,-1.7880751798272834,0.37430727768196725
0.6166458040097147,2.4633583277610027,-3.76486653306077,-1.7881547008133976,0.3743183763850399
0.6166552080872433,2.4634620547538306,-3.7650289875183267,-1.788232747417481,0.37433066881302884
0.6166654272950994,2.4635659709533466,-3.765189886877017,-1.7883101351055075,0.3743430370767368
0.6166718611282044,2.4636679365127336,-3.765354548267586,-1.7883890261744675,0.37435483552528726
0.6166858877560376,2.4637739210989635,-3.765514487856866,-1.7884664408949922,0.3743680369540657
0.616700895686257,2.46387987882079,-3.7656709940849753,-1.7885422465525043,0.37438118617324057
0.6165079499485744,2.463891128264371,-3.7659807568459116,-1.7886672469858738,0.37436218138601196
0.6165197120749111,2.463995413220213,-3.76614136086452,-1.788744784406386,0.3743749274576154
0.6165383049677988,2.464103244195812,-3.766297288740497,-1.7888207934170732,0.37438890576168393
0.6165580769685691,2.4642115483261176,-3.7664519312151414,-1.7888963243082538,0.374403068440408
0.6165770253938753,2.4643194506147044,-3.766608047757428,-1.7889725192350054,0.37441716042728157
0.616599686706213,2.4644289641827357,-3.7667598833808107,-1.7890470225468014,0.3744317860749084
0.6166119867076018,2.4645330520512116,-3.766921385862312,-1.7891253407403576,0.3744447775559064
0.6166383189749869,2.464644752181554,-3.767073383926625,-1.7892004832212416,0.37446031382389455
0.6166712902895367,2.4647599205391306,-3.767220975920307,-1.7892741918097494,0.3744770534668028
0.6167036763815961,2.464874287477273,-3.7673665416810405,-1.7893468184681691,0.37449349353330297
0.6166804479260416,2.464959104671942,-3.7675550714618242,-1.789434593178652,0.3745002503760484
0.6165939556009715,2.465007616689976,-3.7677976336829313,-1.789544155826148,0.3744965599895204
0.6158703426901648,2.464729536575815,-3.768500662081565,-1.7898140069520219,0.37436790911759354
0.6158336792469752,2.464805690936815,-3.768704312697158,-1.7899090918401688,0.3743727738730483
0.6158145743738769,2.4648916097237,-3.7688992911139674,-1.7900021178942769,0.37438109757907034
0.6158304437234166,2.464997553203627,-3.769074144846336,-1.790089111766026,0.3743961321075402
0.6158217662819662,2.4650884576552885,-3.7692676744121463,-1.7901834398812513,0.37440689676723227
0.615763577143893,2.465152252081237,-3.7694939560970964,-1.790288498350024,0.374408592875978
0.6158146934720732,2.465276573517236,-3.7696309471542264,-1.7903592966305053,0.37442881788610927
0.6158672766151179,2.465401443396267,-3.769765942691871,-1.7904292585875805,0.37444923087154325
0.6159166102083266,2.4655244786978274,-3.769903172216438,-1.790499926313172,0.3744690499394386
0.6159649115958094,2.465646536291758,-3.7700389248177366,-1.7905697341392581,0.3744885162079189
0.6160024886769048,2.465762900659382,-3.770183297185262,-1.7906426890885399,0.374506167409619
0.6160471148127705,2.4658830512471237,-3.770322971955169,-1.790714098264803,0.3745251048599847
0.6160960882342249,2.4660054659774064,-3.770459833783948,-1.7907845881824256,0.3745448327866986
0.6161467620811948,2.466128535610199,-3.7705943960645674,-1.7908541279250538,0.3745647830799954
0.6161935539826856,2.4662495082512716,-3.770732027305344,-1.790924744403091,0.37458406561270036
0.6162428723228863,2.466371625072227,-3.770867119307353,-1.7909943839853162,0.37460374260915097
0.616289814103239,2.4664923946160107,-3.7710039805613143,-1.7910646063999491,0.3746229948372134
0.6163360489224722,2.4666123288933055,-3.771138983165927,-1.7911338177096636,0.3746419390914941
0.6163684912599745,2.466724961220328,-3.7712858276939305,-1.791207523979268,0.37465860987223004
0.6164134942456067,2.4668443982624586,-3.771423713029181,-1.7912781261872377,0.37467752201241356
0.6164632497464928,2.4669663225051037,-3.7715585663485327,-1.7913477473733577,0.37469730146154034
0.6165143536368195,2.4670886420824982,-3.7716909209756855,-1.7914162836066794,0.3747172072146236
0.6165588735300577,2.467207482331871,-3.7718286249794164,-1.79148677012446,0.3747360047306958
0.6166086843323907,2.4673291338720573,-3.7719630396391057,-1.7915562207779314,0.37475578057177594
-0.02209794109441624,-0.006721778704207825,-0.26466716048787764,-0.025817371054309278,-0.021101530201960126
0.16642870987333006,0.3629310545863252,-0.737043268048956,-0.24590739703121112,0.054398533672134965
0.312201305563682,0.671098337380306,-1.1458115888318319,-0.4513646277822103,0.1141696217832641
0.3725408168411711,0.8157915181273891,-1.332074867599793,-0.5485180454481939,0.13844681595870353
0.3903051607736789,0.8990350008007728,-1.4486373303192948,-0.6079182369998756,0.14763621013580683
0.3754199078798466,0.9584808339836135,-1.5617759345000415,-0.6586436525244175,0.14918502400367556
0.360060782586955,1.0202149216354366,-1.6797667095058408,-0.7089252627810497,0.1511687106799828
0.3501629131132261,1.08653937017214,-1.8007285559148856,-0.7600821356926956,0.154573719007172
0.3457467036776865,1.1551437468383765,-1.9196785855110488,-0.8109049294533714,0.159049961926816
0.3434895086721828,1.2221060998193352,-2.033603645149685,-0.8603904056612542,0.16383338791438387
0.34532842074497316,1.2860639103952258,-2.1360834040581085,-0.9060331471642633,0.1690011616668722
0.3490220684481387,1.3449451897468767,-2.22786673846228,-0.9478472289972951,0.1741366148274071
0.35467307617216853,1.3989367323388766,-2.3096707746588803,-0.9859927877636115,0.17923666010212452
0.36232085374166506,1.4483920238304386,-2.3817361492366644,-1.020215733878913,0.18428907309575815
0.3717411059923487,1.493956614179648,-2.445152821425721,-1.050863206761047,0.18929991407526783
0.38231573877215996,1.5356709192068143,-2.500488133898108,-1.0779759223122831,0.19424370198834712
0.39072263859433953,1.571854256037914,-2.54982110786931,-1.1020687502133542,0.19852863452344485
0.4012049347257281,1.6055419224743095,-2.5918577555057527,-1.1230807194463466,0.20284885652720916
0.40985934604047225,1.63532896713968,-2.630017086116567,-1.1421554864431338,0.20657939599433037
0.41604912507309294,1.6613025900247682,-2.665438540452995,-1.1596833101671864,0.20965888403999927
0.418411789473511,1.6829166026483953,-2.6991217066840005,-1.1759159753411115,0.2118336524610189
0.42070922696573554,1.7026234890636387,-2.7296269631643413,-1.1906183192350073,0.21383640687462602
0.4274469609935726,1.7232104162437543,-2.755106486195201,-1.2034434569566677,0.2165474937898715
0.4311742238850932,1.7407771804833807,-2.7798552171656365,-1.2155913275977956,0.21855951636840668
0.4328497482308438,1.7562414044416192,-2.8039577960137003,-1.22719101290113,0.22011206482226903
0.4368145679615043,1.7718842626360085,-2.825051102147929,-1.2376362069200608,0.22201983358528635
0.4391301992347292,1.7858145255308682,-2.8455776657288534,-1.247628585180839,0.22354729836800927
0.44460765829933935,1.8005582944532084,-2.86287703282991,-1.2564413143269075,0.22557384518410248
0.4437001155490774,1.8111103610606984,-2.8824446727814284,-1.2656173774968102,0.22633223864255939
0.44630020583430724,1.8227880512340708,-2.898728430393744,-1.2736480733530184,0.2276724719529589
0.4506727710307763,1.8349589848433308,-2.9133451761111795,-1.2810791992571375,0.2293278065580965
0.4541665426538522,1.8463837547105486,-2.927877457857842,-1.2883933958572993,0.23082159454446485
0.45926263032677006,1.8583066682972127,-2.940879490767493,-1.295146085236734,0.23258399642947053
0.4607018900579254,1.8677688125125187,-2.9550501424128304,-1.302040545253037,0.23359161466893585
0.46260095700817105,1.8771787669494058,-2.968413762521109,-1.3086113039782798,0.23469782692985952
0.4652915323308893,1.8866553443153369,-2.980810786078769,-1.3147854862878754,0.23593068955763574
0.4686901825713061,1.8961328398586048,-2.9921860522127255,-1.32056326446053,0.23724039077069117
0.4715587252451115,1.904688436946575,-3.00279384174315,-1.3259254961630123,0.23836161227349145
